{"learner":{"attributes":{"scikit_learn":"{\"_estimator_type\": \"regressor\"}"},"feature_names":["Year","Week","Forecast","Quota","Order","Delivery","PriceCP","Stock","FeedPrice","LayinghenPrice","yhat","Month","DayofWeek","y_lag_1","y_lag_2","y_lag_3","y_rolling_mean_3","y_rolling_std_3","y_rolling_mean_7","y_rolling_std_7"],"feature_types":["float","float","float","float","float","float","float","float","float","float","float","float","float","float","float","float","float","float","float","float"],"gradient_booster":{"model":{"gbtree_model_param":{"num_parallel_tree":"1","num_trees":"100"},"iteration_indptr":[0,1,2,3,4,5,6,7,8,9,10,11,12,13,14,15,16,17,18,19,20,21,22,23,24,25,26,27,28,29,30,31,32,33,34,35,36,37,38,39,40,41,42,43,44,45,46,47,48,49,50,51,52,53,54,55,56,57,58,59,60,61,62,63,64,65,66,67,68,69,70,71,72,73,74,75,76,77,78,79,80,81,82,83,84,85,86,87,88,89,90,91,92,93,94,95,96,97,98,99,100],"tree_info":[0,0,0,0,0,0,0,0,0,0,0,0,0,0,0,0,0,0,0,0,0,0,0,0,0,0,0,0,0,0,0,0,0,0,0,0,0,0,0,0,0,0,0,0,0,0,0,0,0,0,0,0,0,0,0,0,0,0,0,0,0,0,0,0,0,0,0,0,0,0,0,0,0,0,0,0,0,0,0,0,0,0,0,0,0,0,0,0,0,0,0,0,0,0,0,0,0,0,0,0],"trees":[{"base_weights":[1.8631883E-2,-1.9709128E-1,3.394057E-1,-4.599301E-2,-9.852749E-2,1.785298E-1,3.92496E-2,-1.7400278E-2,-9.5124944E-4,5.0369505E-4,1.9256778E-2],"categories":[],"categories_nodes":[],"categories_segments":[],"categories_sizes":[],"default_left":[0,0,0,0,0,0,0,0,0,0,0],"id":0,"left_children":[1,3,5,-1,7,9,-1,-1,-1,-1,-1],"loss_changes":[7.7479095E0,1.6904128E0,3.1427097E-1,0E0,3.3426633E-1,3.0691445E-2,0E0,0E0,0E0,0E0,0E0],"parents":[2147483647,0,0,1,1,2,2,4,4,5,5],"right_children":[2,4,6,-1,8,10,-1,-1,-1,-1,-1],"split_conditions":[3.6232114E-1,-7.9844403E-1,8.357064E-1,-4.599301E-2,-1.5357448E-1,-1.3816687E0,3.92496E-2,-1.7400278E-2,-9.5124944E-4,5.0369505E-4,1.9256778E-2],"split_indices":[6,6,16,0,6,1,0,0,0,0,0],"split_type":[0,0,0,0,0,0,0,0,0,0,0],"sum_hessian":[1.1E2,6.6E1,4.4E1,1.7E1,4.9E1,1.2E1,3.2E1,2.6E1,2.3E1,1E0,1.1E1],"tree_param":{"num_deleted":"0","num_feature":"20","num_nodes":"11","size_leaf_vector":"1"}},{"base_weights":[4.6933936E-3,-1.9788252E-1,2.946386E-1,-4.3315884E-1,-1.0151608E-1,1.5867952E-1,3.5279687E-2,-4.9277183E-2,-2.6908536E-2,-1.6457833E-2,-3.2392805E-4,1.2906392E-5,1.8306198E-2],"categories":[],"categories_nodes":[],"categories_segments":[],"categories_sizes":[],"default_left":[0,0,0,0,0,0,0,0,0,0,0,0,0],"id":1,"left_children":[1,3,5,7,9,11,-1,-1,-1,-1,-1,-1,-1],"loss_changes":[6.284311E0,1.3844101E0,2.9193258E-1,4.34587E-2,2.8455454E-1,5.7964116E-2,0E0,0E0,0E0,0E0,0E0,0E0,0E0],"parents":[2147483647,0,0,1,1,2,2,3,3,4,4,5,5],"right_children":[2,4,6,8,10,12,-1,-1,-1,-1,-1,-1,-1],"split_conditions":[3.6232114E-1,-7.9844403E-1,8.357064E-1,-1.4110701E0,-1.5357448E-1,-4.1878012E-1,3.5279687E-2,-4.9277183E-2,-2.6908536E-2,-1.6457833E-2,-3.2392805E-4,1.2906392E-5,1.8306198E-2],"split_indices":[6,6,16,6,6,1,0,0,0,0,0,0,0],"split_type":[0,0,0,0,0,0,0,0,0,0,0,0,0],"sum_hessian":[1.05E2,6.2E1,4.3E1,1.7E1,4.5E1,1.4E1,2.9E1,1.1E1,6E0,2.7E1,1.8E1,2E0,1.2E1],"tree_param":{"num_deleted":"0","num_feature":"20","num_nodes":"13","size_leaf_vector":"1"}},{"base_weights":[1.070096E-2,-1.6588755E-1,2.6691997E-1,-4.3968715E-2,-1.0358004E-1,1.1043847E-1,3.1236923E-1,-1.5657946E-2,-3.225119E-3,-5.5087884E-3,1.53343E-2,8.625544E-3,3.168808E-2],"categories":[],"categories_nodes":[],"categories_segments":[],"categories_sizes":[],"default_left":[0,0,0,0,0,0,0,0,0,0,0,0,0],"id":2,"left_children":[1,3,5,-1,7,9,11,-1,-1,-1,-1,-1,-1],"loss_changes":[4.659302E0,9.951031E-1,2.6420498E-1,0E0,1.8774986E-1,8.656745E-2,5.3112507E-3,0E0,0E0,0E0,0E0,0E0,0E0],"parents":[2147483647,0,0,1,1,2,2,4,4,5,5,6,6],"right_children":[2,4,6,-1,8,10,12,-1,-1,-1,-1,-1,-1],"split_conditions":[3.6394617E-1,-1.3174778E0,6.0376734E-1,-4.3968715E-2,-3.1141615E-1,-4.0287632E-1,3.7267616E-1,-1.5657946E-2,-3.225119E-3,-5.5087884E-3,1.53343E-2,8.625544E-3,3.168808E-2],"split_indices":[10,14,18,0,14,14,10,0,0,0,0,0,0],"split_type":[0,0,0,0,0,0,0,0,0,0,0,0,0],"sum_hessian":[1.01E2,6E1,4.1E1,1E1,5E1,1E1,3.1E1,2.8E1,2.2E1,2E0,8E0,1E0,3E1],"tree_param":{"num_deleted":"0","num_feature":"20","num_nodes":"13","size_leaf_vector":"1"}},{"base_weights":[-2.0125904E-4,-1.4672162E-1,2.5098127E-1,-3.4311956E-1,-5.912403E-2,1.37644E-1,2.9172806E-2,-4.0298913E-2,-2.4661465E-2,-1.2669848E-2,-3.4917388E-4,6.391168E-4,1.4804914E-2],"categories":[],"categories_nodes":[],"categories_segments":[],"categories_sizes":[],"default_left":[0,0,0,0,0,0,0,0,0,0,0,0,0],"id":3,"left_children":[1,3,5,7,9,11,-1,-1,-1,-1,-1,-1,-1],"loss_changes":[4.1956034E0,1.2184005E0,1.5380692E-1,2.7726412E-2,1.91283E-1,1.6807944E-2,0E0,0E0,0E0,0E0,0E0,0E0,0E0],"parents":[2147483647,0,0,1,1,2,2,3,3,4,4,5,5],"right_children":[2,4,6,8,10,12,-1,-1,-1,-1,-1,-1,-1],"split_conditions":[2.0295058E-1,-7.4580425E-1,8.357064E-1,-1.3646339E0,-3.4356502E-1,-1.3816687E0,2.9172806E-2,-4.0298913E-2,-2.4661465E-2,-1.2669848E-2,-3.4917388E-4,6.391168E-4,1.4804914E-2],"split_indices":[16,13,16,13,13,1,0,0,0,0,0,0,0],"split_type":[0,0,0,0,0,0,0,0,0,0,0,0,0],"sum_hessian":[1.12E2,7.1E1,4.1E1,2.1E1,5E1,1.2E1,2.9E1,1.1E1,1E1,2.2E1,2.8E1,1E0,1.1E1],"tree_param":{"num_deleted":"0","num_feature":"20","num_nodes":"13","size_leaf_vector":"1"}},{"base_weights":[-5.4391352E-3,-1.3245374E-1,2.1545385E-1,-3.2602486E-1,-6.786921E-2,1.19205326E-1,2.6451025E-2,-3.795753E-2,-2.3029936E-2,-1.3353705E-2,-6.505847E-4,2.935171E-4,1.356057E-2],"categories":[],"categories_nodes":[],"categories_segments":[],"categories_sizes":[],"default_left":[0,0,0,0,0,0,0,0,0,0,0,0,0],"id":4,"left_children":[1,3,5,7,9,11,-1,-1,-1,-1,-1,-1,-1],"loss_changes":[3.226994E0,8.904971E-1,1.6677618E-1,4.8544407E-3,2.2478884E-1,3.0111939E-2,0E0,0E0,0E0,0E0,0E0,0E0,0E0],"parents":[2147483647,0,0,1,1,2,2,3,3,4,4,5,5],"right_children":[2,4,6,8,10,12,-1,-1,-1,-1,-1,-1,-1],"split_conditions":[3.6232114E-1,-9.596614E-1,8.357064E-1,-1.4755571E0,-2.825484E-1,-4.1878012E-1,2.6451025E-2,-3.795753E-2,-2.3029936E-2,-1.3353705E-2,-6.505847E-4,2.935171E-4,1.356057E-2],"split_indices":[6,6,16,6,6,1,0,0,0,0,0,0,0],"split_type":[0,0,0,0,0,0,0,0,0,0,0,0,0],"sum_hessian":[1.13E2,7.2E1,4.1E1,1.7E1,5.5E1,1.5E1,2.6E1,9E0,8E0,2.6E1,2.9E1,2E0,1.3E1],"tree_param":{"num_deleted":"0","num_feature":"20","num_nodes":"13","size_leaf_vector":"1"}},{"base_weights":[-9.307962E-3,-1.9082758E-1,1.2162982E-1,-2.934957E-1,-1.0990143E-1,3.972067E-2,2.372243E-2,-3.489324E-2,-2.1137763E-2,-1.1364441E-2,-2.548933E-4,3.4629533E-4,1.0939891E-2],"categories":[],"categories_nodes":[],"categories_segments":[],"categories_sizes":[],"default_left":[0,0,0,0,0,0,0,0,0,0,0,0,0],"id":5,"left_children":[1,3,5,7,9,11,-1,-1,-1,-1,-1,-1,-1],"loss_changes":[2.7802722E0,3.7486267E-1,6.34418E-1,2.1842957E-2,1.1363059E-2,1.0320248E-1,0E0,0E0,0E0,0E0,0E0,0E0,0E0],"parents":[2147483647,0,0,1,1,2,2,3,3,4,4,5,5],"right_children":[2,4,6,8,10,12,-1,-1,-1,-1,-1,-1,-1],"split_conditions":[-1.5357448E-1,-7.9844403E-1,8.357064E-1,-1.7335049E0,2.2641768E0,4.268081E-1,2.372243E-2,-3.489324E-2,-2.1137763E-2,-1.1364441E-2,-2.548933E-4,3.4629533E-4,1.0939891E-2],"split_indices":[6,6,16,6,17,6,0,0,0,0,0,0,0],"split_type":[0,0,0,0,0,0,0,0,0,0,0,0,0],"sum_hessian":[1.15E2,4.8E1,6.7E1,2E1,2.8E1,4E1,2.7E1,1E1,1E1,2.7E1,1E0,2.7E1,1.3E1],"tree_param":{"num_deleted":"0","num_feature":"20","num_nodes":"13","size_leaf_vector":"1"}},{"base_weights":[7.294406E-4,-1.1711331E-1,1.8283348E-1,-2.7326882E-1,-5.5431947E-2,1.05669074E-1,2.1178406E-1,-3.1739905E-2,-1.8896867E-2,-1.0758954E-2,-7.016606E-4,4.5490266E-5,1.1372748E-2,5.725515E-3,2.1502653E-2],"categories":[],"categories_nodes":[],"categories_segments":[],"categories_sizes":[],"default_left":[0,0,0,0,0,0,0,0,0,0,0,0,0,0,0],"id":6,"left_children":[1,3,5,7,9,11,13,-1,-1,-1,-1,-1,-1,-1,-1],"loss_changes":[2.4034324E0,6.3982046E-1,7.591486E-2,1.0704994E-2,1.2550648E-1,1.181829E-2,3.2213926E-3,0E0,0E0,0E0,0E0,0E0,0E0,0E0,0E0],"parents":[2147483647,0,0,1,1,2,2,3,3,4,4,5,5,6,6],"right_children":[2,4,6,8,10,12,14,-1,-1,-1,-1,-1,-1,-1,-1],"split_conditions":[3.6232114E-1,-7.9844403E-1,8.357064E-1,-1.4755571E0,-2.825484E-1,-1.5039101E-1,5.7882977E-1,-3.1739905E-2,-1.8896867E-2,-1.0758954E-2,-7.016606E-4,4.5490266E-5,1.1372748E-2,5.725515E-3,2.1502653E-2],"split_indices":[6,6,16,6,6,2,10,0,0,0,0,0,0,0,0],"split_type":[0,0,0,0,0,0,0,0,0,0,0,0,0,0,0],"sum_hessian":[1.1E2,6.7E1,4.3E1,1.8E1,4.9E1,1.3E1,3E1,1E1,8E0,2.3E1,2.6E1,1E0,1.2E1,1E0,2.9E1],"tree_param":{"num_deleted":"0","num_feature":"20","num_nodes":"15","size_leaf_vector":"1"}},{"base_weights":[-5.0078263E-3,-1.2630107E-1,1.285149E-1,-2.2523046E-1,-5.8573205E-2,4.5163754E-2,1.923921E-1,-2.8471056E-2,-1.7090535E-2,-7.983979E-3,-1.2931149E-3,1.3008033E-3,8.566539E-3,5.439234E-3,1.9548867E-2],"categories":[],"categories_nodes":[],"categories_segments":[],"categories_sizes":[],"default_left":[0,0,0,0,0,0,0,0,0,0,0,0,0,0,0],"id":7,"left_children":[1,3,5,7,9,11,13,-1,-1,-1,-1,-1,-1,-1,-1],"loss_changes":[1.7005537E0,3.5532272E-1,2.575227E-1,2.2429228E-2,3.1969704E-2,2.883993E-2,1.3320446E-3,0E0,0E0,0E0,0E0,0E0,0E0,0E0,0E0],"parents":[2147483647,0,0,1,1,2,2,3,3,4,4,5,5,6,6],"right_children":[2,4,6,8,10,12,14,-1,-1,-1,-1,-1,-1,-1,-1],"split_conditions":[3.9886374E-2,-7.6620054E-1,1.1106845E0,-1.4755571E0,-1.2133101E-1,4.268081E-1,5.7882977E-1,-2.8471056E-2,-1.7090535E-2,-7.983979E-3,-1.2931149E-3,1.3008033E-3,8.566539E-3,5.439234E-3,1.9548867E-2],"split_indices":[6,6,13,6,6,6,10,0,0,0,0,0,0,0,0],"split_type":[0,0,0,0,0,0,0,0,0,0,0,0,0,0,0],"sum_hessian":[1.03E2,5.4E1,4.9E1,2.1E1,3.3E1,2.2E1,2.7E1,8E0,1.3E1,2.2E1,1.1E1,1.3E1,9E0,1E0,2.6E1],"tree_param":{"num_deleted":"0","num_feature":"20","num_nodes":"15","size_leaf_vector":"1"}},{"base_weights":[8.813237E-3,-1.2341064E-1,1.1921659E-1,-2.2578226E-1,-5.5571802E-2,3.8967982E-2,1.7021656E-1,-2.6266186E-2,-1.6263649E-2,-8.106321E-3,-1.7006908E-3,1.7181184E-3,8.311728E-3,7.34489E-3,1.7659461E-2],"categories":[],"categories_nodes":[],"categories_segments":[],"categories_sizes":[],"default_left":[0,0,0,0,0,0,0,0,0,0,0,0,0,0,0],"id":8,"left_children":[1,3,5,7,9,11,13,-1,-1,-1,-1,-1,-1,-1,-1],"loss_changes":[1.6350863E0,3.4163624E-1,2.4302018E-1,3.8573742E-3,3.0079708E-2,2.2618737E-2,9.865403E-3,0E0,0E0,0E0,0E0,0E0,0E0,0E0,0E0],"parents":[2147483647,0,0,1,1,2,2,3,3,4,4,5,5,6,6],"right_children":[2,4,6,8,10,12,14,-1,-1,-1,-1,-1,-1,-1,-1],"split_conditions":[2.3669757E-2,-7.4580425E-1,5.7882977E-1,-1.4755571E0,-4.2980528E-1,4.5905158E-1,7.829768E-1,-2.6266186E-2,-1.6263649E-2,-8.106321E-3,-1.7006908E-3,1.7181184E-3,8.311728E-3,7.34489E-3,1.7659461E-2],"split_indices":[16,13,10,6,16,6,16,0,0,0,0,0,0,0,0],"split_type":[0,0,0,0,0,0,0,0,0,0,0,0,0,0,0],"sum_hessian":[1.1E2,5E1,6E1,1.9E1,3.1E1,2.4E1,3.6E1,1E1,9E0,1.8E1,1.3E1,1.7E1,7E0,3E0,3.3E1],"tree_param":{"num_deleted":"0","num_feature":"20","num_nodes":"15","size_leaf_vector":"1"}},{"base_weights":[5.3011533E-3,-7.623511E-2,1.3675055E-1,-1.880658E-1,-3.175725E-2,7.955825E-2,1.5816802E-2,-2.3582578E-2,-1.3657366E-2,-7.0379437E-3,-1.0883331E-4,-4.7101974E-4,8.640277E-3],"categories":[],"categories_nodes":[],"categories_segments":[],"categories_sizes":[],"default_left":[0,0,0,0,0,0,0,0,0,0,0,0,0],"id":9,"left_children":[1,3,5,7,9,11,-1,-1,-1,-1,-1,-1,-1],"loss_changes":[1.232265E0,3.4718084E-1,4.1312695E-2,1.6977668E-2,6.151743E-2,8.481845E-3,0E0,0E0,0E0,0E0,0E0,0E0,0E0],"parents":[2147483647,0,0,1,1,2,2,3,3,4,4,5,5],"right_children":[2,4,6,8,10,12,-1,-1,-1,-1,-1,-1,-1],"split_conditions":[2.6622617E-1,-8.7273437E-1,8.357064E-1,-1.7335049E0,-2.825484E-1,-1.5039101E-1,1.5816802E-2,-2.3582578E-2,-1.3657366E-2,-7.0379437E-3,-1.0883331E-4,-4.7101974E-4,8.640277E-3],"split_indices":[16,16,16,6,6,2,0,0,0,0,0,0,0],"split_type":[0,0,0,0,0,0,0,0,0,0,0,0,0],"sum_hessian":[1.13E2,7E1,4.3E1,1.9E1,5.1E1,1.3E1,3E1,8E0,1.1E1,2.2E1,2.9E1,1E0,1.2E1],"tree_param":{"num_deleted":"0","num_feature":"20","num_nodes":"13","size_leaf_vector":"1"}},{"base_weights":[-2.837111E-3,-1.0791781E-1,8.915283E-2,-1.8214184E-1,-5.817933E-2,1.0383779E-2,1.2737995E-1,-1.9659936E-2,-9.366642E-3,-8.058667E-3,-2.6533946E-3,5.443824E-4,3.985556E-3,7.3972084E-3,1.4342728E-2],"categories":[],"categories_nodes":[],"categories_segments":[],"categories_sizes":[],"default_left":[0,0,0,0,0,0,0,0,0,0,0,0,0,0,0],"id":10,"left_children":[1,3,5,7,9,11,13,-1,-1,-1,-1,-1,-1,-1,-1],"loss_changes":[1.1599188E0,1.9614345E-1,1.913886E-1,9.726226E-3,2.267982E-2,2.9859983E-3,2.6243687E-2,0E0,0E0,0E0,0E0,0E0,0E0,0E0,0E0],"parents":[2147483647,0,0,1,1,2,2,3,3,4,4,5,5,6,6],"right_children":[2,4,6,8,10,12,14,-1,-1,-1,-1,-1,-1,-1,-1],"split_conditions":[7.6428982E-3,-7.9844403E-1,6.775038E-1,1.0532271E0,-1.3331638E-1,1.4398725E0,9.5597714E-1,-1.9659936E-2,-9.366642E-3,-8.058667E-3,-2.6533946E-3,5.443824E-4,3.985556E-3,7.3972084E-3,1.4342728E-2],"split_indices":[6,6,13,9,9,17,13,0,0,0,0,0,0,0,0],"split_type":[0,0,0,0,0,0,0,0,0,0,0,0,0,0,0],"sum_hessian":[1.18E2,5.5E1,6.3E1,2.1E1,3.4E1,2.1E1,4.2E1,1.7E1,4E0,1.9E1,1.5E1,1.9E1,2E0,1.1E1,3.1E1],"tree_param":{"num_deleted":"0","num_feature":"20","num_nodes":"15","size_leaf_vector":"1"}},{"base_weights":[-4.7201235E-3,-1.0843218E-1,7.9735786E-2,-1.6398549E-1,-5.915051E-2,5.9129954E-3,1.1465379E-1,-1.992844E-2,-1.179627E-2,1.3556242E-3,-6.2468317E-3,1.1649535E-3,-1.3626529E-3,7.048186E-3,1.2897826E-2],"categories":[],"categories_nodes":[],"categories_segments":[],"categories_sizes":[],"default_left":[0,0,0,0,0,0,0,0,0,0,0,0,0,0,0],"id":11,"left_children":[1,3,5,7,9,11,13,-1,-1,-1,-1,-1,-1,-1,-1],"loss_changes":[9.3711007E-1,1.21712685E-1,1.51409E-1,1.2232065E-2,7.3599666E-3,2.4005272E-3,1.621896E-2,0E0,0E0,0E0,0E0,0E0,0E0,0E0,0E0],"parents":[2147483647,0,0,1,1,2,2,3,3,4,4,5,5,6,6],"right_children":[2,4,6,8,10,12,14,-1,-1,-1,-1,-1,-1,-1,-1],"split_conditions":[-1.2133101E-1,-7.4580425E-1,4.268081E-1,-1.7335049E0,-1.7537295E0,1.1847861E-2,7.933007E-1,-1.992844E-2,-1.179627E-2,1.3556242E-3,-6.2468317E-3,1.1649535E-3,-1.3626529E-3,7.048186E-3,1.2897826E-2],"split_indices":[6,13,6,6,5,5,18,0,0,0,0,0,0,0,0],"split_type":[0,0,0,0,0,0,0,0,0,0,0,0,0,0,0],"sum_hessian":[1.05E2,4.7E1,5.8E1,2.1E1,2.6E1,1.9E1,3.9E1,1E1,1.1E1,1E0,2.5E1,1.5E1,4E0,1.1E1,2.8E1],"tree_param":{"num_deleted":"0","num_feature":"20","num_nodes":"15","size_leaf_vector":"1"}},{"base_weights":[-4.0485966E-3,-9.613142E-2,7.176225E-2,-1.6584575E-1,-4.9555853E-2,2.3773778E-2,1.1600851E-1,-1.8582806E-2,-1.1264378E-2,-5.816107E-3,-2.1102403E-3,3.1075705E-4,6.1066197E-3,2.5988221E-3,1.1807407E-2],"categories":[],"categories_nodes":[],"categories_segments":[],"categories_sizes":[],"default_left":[0,0,0,0,0,0,0,0,0,0,0,0,0,0,0],"id":12,"left_children":[1,3,5,7,9,11,13,-1,-1,-1,-1,-1,-1,-1,-1],"loss_changes":[7.887567E-1,1.573776E-1,1.288873E-1,3.2955408E-4,6.6078007E-3,2.3701712E-2,2.8815567E-3,0E0,0E0,0E0,0E0,0E0,0E0,0E0,0E0],"parents":[2147483647,0,0,1,1,2,2,3,3,4,4,5,5,6,6],"right_children":[2,4,6,8,10,12,14,-1,-1,-1,-1,-1,-1,-1,-1],"split_conditions":[7.6428982E-3,-7.9844403E-1,8.357064E-1,-1.3646339E0,-2.825484E-1,4.5905158E-1,5.7882977E-1,-1.8582806E-2,-1.1264378E-2,-5.816107E-3,-2.1102403E-3,3.1075705E-4,6.1066197E-3,2.5988221E-3,1.1807407E-2],"split_indices":[6,6,16,13,6,6,10,0,0,0,0,0,0,0,0],"split_type":[0,0,0,0,0,0,0,0,0,0,0,0,0,0,0],"sum_hessian":[1.11E2,5E1,6.1E1,1.9E1,3.1E1,3E1,3.1E1,1.2E1,7E0,2.3E1,8E0,2E1,1E1,1E0,3E1],"tree_param":{"num_deleted":"0","num_feature":"20","num_nodes":"15","size_leaf_vector":"1"}},{"base_weights":[-2.1149876E-4,-9.3837716E-2,6.037328E-2,-1.4016189E-1,-5.3024873E-2,1.4726001E-2,1.029914E-1,-1.667689E-2,-9.687798E-3,-3.926497E-3,-7.7356547E-3,4.4982522E-4,4.7403905E-3,5.154786E-3,1.0796645E-2],"categories":[],"categories_nodes":[],"categories_segments":[],"categories_sizes":[],"default_left":[0,0,0,0,0,0,0,0,0,0,0,0,0,0,0],"id":13,"left_children":[1,3,5,7,9,11,13,-1,-1,-1,-1,-1,-1,-1,-1],"loss_changes":[6.352933E-1,7.575524E-2,1.3077061E-1,6.876886E-3,5.332634E-3,1.1150289E-2,3.3922493E-3,0E0,0E0,0E0,0E0,0E0,0E0,0E0,0E0],"parents":[2147483647,0,0,1,1,2,2,3,3,4,4,5,5,6,6],"right_children":[2,4,6,8,10,12,14,-1,-1,-1,-1,-1,-1,-1,-1],"split_conditions":[-2.825484E-1,-9.596614E-1,7.440446E-1,-1.4755571E0,9.595067E-1,2.0295058E-1,-1.436691E-1,-1.667689E-2,-9.687798E-3,-3.926497E-3,-7.7356547E-3,4.4982522E-4,4.7403905E-3,5.154786E-3,1.0796645E-2],"split_indices":[6,6,10,6,8,16,1,0,0,0,0,0,0,0,0],"split_type":[0,0,0,0,0,0,0,0,0,0,0,0,0,0,0],"sum_hessian":[1.1E2,4.3E1,6.7E1,1.9E1,2.4E1,3.3E1,3.4E1,1E1,9E0,1.7E1,7E0,2.6E1,7E0,4E0,3E1],"tree_param":{"num_deleted":"0","num_feature":"20","num_nodes":"15","size_leaf_vector":"1"}},{"base_weights":[1.6980593E-3,-6.0619466E-2,7.090831E-2,-1.22125804E-1,-2.681315E-2,2.6615946E-2,9.231516E-2,-1.5855113E-2,-9.258807E-3,-6.045643E-3,-1.358351E-3,7.404631E-4,4.7139116E-3,9.537513E-3,-7.39193E-4],"categories":[],"categories_nodes":[],"categories_segments":[],"categories_sizes":[],"default_left":[0,0,0,0,0,0,0,0,0,0,0,0,0,0,0],"id":14,"left_children":[1,3,5,7,9,11,13,-1,-1,-1,-1,-1,-1,-1,-1],"loss_changes":[4.9166867E-1,1.2148361E-1,4.8743606E-2,7.914424E-3,1.6982332E-2,7.142216E-3,1.168862E-2,0E0,0E0,0E0,0E0,0E0,0E0,0E0,0E0],"parents":[2147483647,0,0,1,1,2,2,3,3,4,4,5,5,6,6],"right_children":[2,4,6,8,10,12,14,-1,-1,-1,-1,-1,-1,-1,-1],"split_conditions":[7.212985E-2,-7.9844403E-1,5.7882977E-1,-1.8302352E0,-7.836912E-1,3.637982E-1,5.230693E-1,-1.5855113E-2,-9.258807E-3,-6.045643E-3,-1.358351E-3,7.404631E-4,4.7139116E-3,9.537513E-3,-7.39193E-4],"split_indices":[6,6,10,6,9,10,9,0,0,0,0,0,0,0,0],"split_type":[0,0,0,0,0,0,0,0,0,0,0,0,0,0,0],"sum_hessian":[1.12E2,5.9E1,5.3E1,2E1,3.9E1,1.8E1,3.5E1,7E0,1.3E1,1E1,2.9E1,1E1,8E0,3.4E1,1E0],"tree_param":{"num_deleted":"0","num_feature":"20","num_nodes":"15","size_leaf_vector":"1"}},{"base_weights":[-4.9748463E-3,-8.0531955E-2,4.661674E-2,-1.393903E-1,-5.7389833E-2,8.970944E-3,7.588045E-2,-3.5809756E-3,-1.4555129E-2,-7.4786106E-3,-3.0368823E-3,-2.9622496E-3,1.4356234E-3,3.8378169E-3,8.656411E-3],"categories":[],"categories_nodes":[],"categories_segments":[],"categories_sizes":[],"default_left":[0,0,0,0,0,0,0,0,0,0,0,0,0,0,0],"id":15,"left_children":[1,3,5,7,9,11,13,-1,-1,-1,-1,-1,-1,-1,-1],"loss_changes":[4.3254635E-1,5.3295255E-2,7.202856E-2,2.4457574E-3,1.3711035E-2,6.6603725E-3,1.1502281E-2,0E0,0E0,0E0,0E0,0E0,0E0,0E0,0E0],"parents":[2147483647,0,0,1,1,2,2,3,3,4,4,5,5,6,6],"right_children":[2,4,6,8,10,12,14,-1,-1,-1,-1,-1,-1,-1,-1],"split_conditions":[-3.4356502E-1,-1.3646339E0,4.106983E-1,-2.1236303E0,-6.0498315E-1,-8.71047E-1,7.933007E-1,-3.5809756E-3,-1.4555129E-2,-7.4786106E-3,-3.0368823E-3,-2.9622496E-3,1.4356234E-3,3.8378169E-3,8.656411E-3],"split_indices":[13,13,10,3,6,10,18,0,0,0,0,0,0,0,0],"split_type":[0,0,0,0,0,0,0,0,0,0,0,0,0,0,0],"sum_hessian":[1.09E2,4.4E1,6.5E1,1.1E1,3.3E1,2.9E1,3.6E1,1E0,1E1,1.9E1,1.4E1,3E0,2.6E1,9E0,2.7E1],"tree_param":{"num_deleted":"0","num_feature":"20","num_nodes":"15","size_leaf_vector":"1"}},{"base_weights":[-6.3021937E-3,-6.366809E-2,5.587524E-2,-1.03432655E-1,-3.4340315E-2,2.3874424E-2,7.90232E-2,-1.2640468E-2,-7.3755584E-3,-4.9106744E-3,-1.4331246E-3,1.0932888E-3,4.135299E-3,2.1432282E-3,8.036241E-3],"categories":[],"categories_nodes":[],"categories_segments":[],"categories_sizes":[],"default_left":[0,0,0,0,0,0,0,0,0,0,0,0,0,0,0],"id":16,"left_children":[1,3,5,7,9,11,13,-1,-1,-1,-1,-1,-1,-1,-1],"loss_changes":[3.6381075E-1,5.825703E-2,3.4410313E-2,5.675286E-3,8.751042E-3,4.5242794E-3,4.3718517E-4,0E0,0E0,0E0,0E0,0E0,0E0,0E0,0E0],"parents":[2147483647,0,0,1,1,2,2,3,3,4,4,5,5,6,6],"right_children":[2,4,6,8,10,12,14,-1,-1,-1,-1,-1,-1,-1,-1],"split_conditions":[-7.968036E-3,-7.4580425E-1,5.7882977E-1,-1.4755571E0,-1.3331638E-1,2.3334724E-1,6.9464546E-1,-1.2640468E-2,-7.3755584E-3,-4.9106744E-3,-1.4331246E-3,1.0932888E-3,4.135299E-3,2.1432282E-3,8.036241E-3],"split_indices":[16,13,10,6,9,6,14,0,0,0,0,0,0,0,0],"split_type":[0,0,0,0,0,0,0,0,0,0,0,0,0,0,0],"sum_hessian":[1E2,5.2E1,4.8E1,2.1E1,3.1E1,2.1E1,2.7E1,1E1,1.1E1,1.7E1,1.4E1,1.3E1,8E0,1E0,2.6E1],"tree_param":{"num_deleted":"0","num_feature":"20","num_nodes":"15","size_leaf_vector":"1"}},{"base_weights":[1.0018523E-3,-4.766636E-2,5.1454037E-2,-8.03199E-2,-1.4495134E-2,4.9856077E-3,6.461202E-2,-1.2657481E-2,-5.5489196E-3,-3.6872353E-3,5.990878E-4,9.3637704E-4,-2.3776174E-3,3.8549162E-3,7.155201E-3],"categories":[],"categories_nodes":[],"categories_segments":[],"categories_sizes":[],"default_left":[0,0,0,0,0,0,0,0,0,0,0,0,0,0,0],"id":17,"left_children":[1,3,5,7,9,11,13,-1,-1,-1,-1,-1,-1,-1,-1],"loss_changes":[2.700931E-1,5.9492603E-2,3.269516E-2,2.5135636E-2,1.3515076E-2,1.8596435E-3,4.8385113E-3,0E0,0E0,0E0,0E0,0E0,0E0,0E0,0E0],"parents":[2147483647,0,0,1,1,2,2,3,3,4,4,5,5,6,6],"right_children":[2,4,6,8,10,12,14,-1,-1,-1,-1,-1,-1,-1,-1],"split_conditions":[7.212985E-2,-5.7273966E-1,3.637982E-1,-1.0377799E0,-3.6894202E-1,1.5036188E0,7.829768E-1,-1.2657481E-2,-5.5489196E-3,-3.6872353E-3,5.990878E-4,9.3637704E-4,-2.3776174E-3,3.8549162E-3,7.155201E-3],"split_indices":[6,6,10,1,9,0,16,0,0,0,0,0,0,0,0],"split_type":[0,0,0,0,0,0,0,0,0,0,0,0,0,0,0],"sum_hessian":[1.08E2,5.5E1,5.3E1,2.7E1,2.8E1,1.2E1,4.1E1,8E0,1.9E1,1.3E1,1.5E1,1.1E1,1E0,1E1,3.1E1],"tree_param":{"num_deleted":"0","num_feature":"20","num_nodes":"15","size_leaf_vector":"1"}},{"base_weights":[-1.2827499E-3,-4.581742E-2,4.3275673E-2,-3.5748925E-2,-1.3733888E-2,4.981309E-3,5.787655E-2,-6.7884387E-3,-1.8629754E-3,1.0265791E-3,-1.3438583E-3,3.5967806E-3,6.419102E-3],"categories":[],"categories_nodes":[],"categories_segments":[],"categories_sizes":[],"default_left":[0,0,0,0,0,0,0,0,0,0,0,0,0],"id":18,"left_children":[1,3,5,7,-1,9,11,-1,-1,-1,-1,-1,-1],"loss_changes":[2.1431302E-1,4.485038E-2,2.9904783E-2,2.6241958E-2,0E0,1.6953908E-3,3.0865371E-3,0E0,0E0,0E0,0E0,0E0,0E0],"parents":[2147483647,0,0,1,1,2,2,3,3,5,5,6,6],"right_children":[2,4,6,8,-1,10,12,-1,-1,-1,-1,-1,-1],"split_conditions":[3.9886374E-2,1.4398725E0,2.0295058E-1,-6.839213E-1,-1.3733888E-2,3.4451035E-1,7.933007E-1,-6.7884387E-3,-1.8629754E-3,1.0265791E-3,-1.3438583E-3,3.5967806E-3,6.419102E-3],"split_indices":[6,17,16,13,0,10,18,0,0,0,0,0,0],"split_type":[0,0,0,0,0,0,0,0,0,0,0,0,0],"sum_hessian":[1.06E2,5.3E1,5.3E1,4.9E1,4E0,1.5E1,3.8E1,1.6E1,3.3E1,1.2E1,3E0,1E1,2.8E1],"tree_param":{"num_deleted":"0","num_feature":"20","num_nodes":"13","size_leaf_vector":"1"}},{"base_weights":[-3.0467242E-3,-5.8301467E-2,3.2161545E-2,-9.4723605E-2,-4.2321883E-2,5.077757E-3,5.6004968E-2,-1.0312996E-2,-3.5127879E-3,-2.2342578E-3,-5.965607E-3,1.5115844E-3,-4.093993E-3,2.7534207E-3,5.983229E-3],"categories":[],"categories_nodes":[],"categories_segments":[],"categories_sizes":[],"default_left":[0,0,0,0,0,0,0,0,0,0,0,0,0,0,0],"id":19,"left_children":[1,3,5,7,9,11,13,-1,-1,-1,-1,-1,-1,-1,-1],"loss_changes":[2.1003543E-1,2.0435557E-2,4.2336456E-2,2.3890585E-3,9.403199E-3,1.5400587E-2,2.1663979E-3,0E0,0E0,0E0,0E0,0E0,0E0,0E0,0E0],"parents":[2147483647,0,0,1,1,2,2,3,3,4,4,5,5,6,6],"right_children":[2,4,6,8,10,12,14,-1,-1,-1,-1,-1,-1,-1,-1],"split_conditions":[-2.825484E-1,-1.3646339E0,6.8710256E-1,-1.4755571E0,-2.878058E-1,1.5036188E0,6.361267E-1,-1.0312996E-2,-3.5127879E-3,-2.2342578E-3,-5.965607E-3,1.5115844E-3,-4.093993E-3,2.7534207E-3,5.983229E-3],"split_indices":[6,13,10,6,8,0,18,0,0,0,0,0,0,0,0],"split_type":[0,0,0,0,0,0,0,0,0,0,0,0,0,0,0],"sum_hessian":[1.06E2,4.1E1,6.5E1,1.1E1,3E1,3.1E1,3.4E1,9E0,2E0,1.5E1,1.5E1,2.6E1,5E0,5E0,2.9E1],"tree_param":{"num_deleted":"0","num_feature":"20","num_nodes":"15","size_leaf_vector":"1"}},{"base_weights":[-8.0916835E-3,-4.252928E-2,3.2581795E-2,-7.1135886E-2,-2.1482216E-2,1.1511246E-3,4.8263278E-2,-3.379086E-3,-8.115059E-3,-2.563861E-3,3.2784303E-3,1.0996134E-3,-5.1739295E-3,2.7541877E-3,5.357979E-3],"categories":[],"categories_nodes":[],"categories_segments":[],"categories_sizes":[],"default_left":[0,0,0,0,0,0,0,0,0,0,0,0,0,0,0],"id":20,"left_children":[1,3,5,7,9,11,13,-1,-1,-1,-1,-1,-1,-1,-1],"loss_changes":[1.5546235E-1,3.4596942E-2,2.5081288E-2,6.6078305E-3,8.96045E-3,9.941652E-3,2.269946E-3,0E0,0E0,0E0,0E0,0E0,0E0,0E0,0E0],"parents":[2147483647,0,0,1,1,2,2,3,3,4,4,5,5,6,6],"right_children":[2,4,6,8,10,12,14,-1,-1,-1,-1,-1,-1,-1,-1],"split_conditions":[2.3669757E-2,-8.516425E-1,4.106983E-1,-1.1726686E0,2.2641768E0,1.5036188E0,7.933007E-1,-3.379086E-3,-8.115059E-3,-2.563861E-3,3.2784303E-3,1.0996134E-3,-5.1739295E-3,2.7541877E-3,5.357979E-3],"split_indices":[16,16,10,7,17,0,18,0,0,0,0,0,0,0,0],"split_type":[0,0,0,0,0,0,0,0,0,0,0,0,0,0,0],"sum_hessian":[1.09E2,5.9E1,5E1,2.4E1,3.5E1,1.7E1,3.3E1,6E0,1.8E1,3.3E1,2E0,1.5E1,2E0,8E0,2.5E1],"tree_param":{"num_deleted":"0","num_feature":"20","num_nodes":"15","size_leaf_vector":"1"}},{"base_weights":[-1.434821E-3,-3.849861E-2,3.1102449E-2,-7.242709E-2,-1.7150499E-2,2.4896727E-3,4.3200634E-2,-1.32379895E-2,-6.174193E-3,-1.9837033E-3,3.3066035E-3,8.6681143E-4,-5.1271915E-3,2.7405599E-3,4.8246835E-3],"categories":[],"categories_nodes":[],"categories_segments":[],"categories_sizes":[],"default_left":[0,0,0,0,0,0,0,0,0,0,0,0,0,0,0],"id":21,"left_children":[1,3,5,7,9,11,13,-1,-1,-1,-1,-1,-1,-1,-1],"loss_changes":[1.2902857E-1,3.497328E-2,1.9623715E-2,3.9981008E-3,4.973002E-3,6.4233616E-3,1.8659681E-3,0E0,0E0,0E0,0E0,0E0,0E0,0E0,0E0],"parents":[2147483647,0,0,1,1,2,2,3,3,4,4,5,5,6,6],"right_children":[2,4,6,8,10,12,14,-1,-1,-1,-1,-1,-1,-1,-1],"split_conditions":[2.3669757E-2,-7.9844403E-1,2.6559073E-1,-1.5192243E0,1.4398725E0,2.6718462E-1,7.516958E-1,-1.32379895E-2,-6.174193E-3,-1.9837033E-3,3.3066035E-3,8.6681143E-4,-5.1271915E-3,2.7405599E-3,4.8246835E-3],"split_indices":[16,6,6,1,17,3,18,0,0,0,0,0,0,0,0],"split_type":[0,0,0,0,0,0,0,0,0,0,0,0,0,0,0],"sum_hessian":[1.05E2,4.9E1,5.6E1,1.8E1,3.1E1,1.7E1,3.9E1,1E0,1.7E1,3E1,1E0,1.6E1,1E0,1.1E1,2.8E1],"tree_param":{"num_deleted":"0","num_feature":"20","num_nodes":"15","size_leaf_vector":"1"}},{"base_weights":[-3.3723384E-3,-4.6849325E-2,1.8999254E-2,-8.618554E-2,-3.348682E-2,5.0294993E-4,3.9595053E-2,-1.1547637E-2,-5.2294056E-3,-3.8608063E-3,-1.4577389E-3,7.162823E-4,-3.8430137E-3,2.2900372E-3,4.295085E-3],"categories":[],"categories_nodes":[],"categories_segments":[],"categories_sizes":[],"default_left":[0,0,0,0,0,0,0,0,0,0,0,0,0,0,0],"id":22,"left_children":[1,3,5,7,9,11,13,-1,-1,-1,-1,-1,-1,-1,-1],"loss_changes":[1.0885419E-1,1.7087884E-2,2.8170101E-2,2.8956607E-3,2.342388E-3,1.0646844E-2,9.77248E-4,0E0,0E0,0E0,0E0,0E0,0E0,0E0,0E0],"parents":[2147483647,0,0,1,1,2,2,3,3,4,4,5,5,6,6],"right_children":[2,4,6,8,10,12,14,-1,-1,-1,-1,-1,-1,-1,-1],"split_conditions":[-3.4703535E-1,-1.0377799E0,5.2353853E-1,-2.4511835E-1,-3.4465668E-1,1.3486478E0,7.516958E-1,-1.1547637E-2,-5.2294056E-3,-3.8608063E-3,-1.4577389E-3,7.162823E-4,-3.8430137E-3,2.2900372E-3,4.295085E-3],"split_indices":[6,1,6,9,2,7,18,0,0,0,0,0,0,0,0],"split_type":[0,0,0,0,0,0,0,0,0,0,0,0,0,0,0],"sum_hessian":[1.1E2,3.7E1,7.3E1,8E0,2.9E1,3.9E1,3.4E1,3E0,5E0,2.2E1,7E0,3.4E1,5E0,7E0,2.7E1],"tree_param":{"num_deleted":"0","num_feature":"20","num_nodes":"15","size_leaf_vector":"1"}},{"base_weights":[-1.6310258E-3,-4.4393927E-2,1.7827839E-2,-6.816839E-2,-2.5298174E-2,5.033393E-3,4.0038354E-3,-1.25591755E-2,-4.967312E-3,-1.6849496E-3,-3.144702E-3,1.1648836E-3,-1.2809805E-3],"categories":[],"categories_nodes":[],"categories_segments":[],"categories_sizes":[],"default_left":[0,0,0,0,0,0,0,0,0,0,0,0,0],"id":23,"left_children":[1,3,5,7,9,11,-1,-1,-1,-1,-1,-1,-1],"loss_changes":[9.3156494E-2,1.4165148E-2,2.1679658E-2,9.692378E-3,5.610753E-4,6.0512517E-3,0E0,0E0,0E0,0E0,0E0,0E0,0E0],"parents":[2147483647,0,0,1,1,2,2,3,3,4,4,5,5],"right_children":[2,4,6,8,10,12,-1,-1,-1,-1,-1,-1,-1],"split_conditions":[-5.669024E-1,-8.373874E-1,9.938954E-1,-2.4511835E-1,-3.3053878E-1,6.942216E-1,4.0038354E-3,-1.25591755E-2,-4.967312E-3,-1.6849496E-3,-3.144702E-3,1.1648836E-3,-1.2809805E-3],"split_indices":[16,4,16,9,7,7,0,0,0,0,0,0,0],"split_type":[0,0,0,0,0,0,0,0,0,0,0,0,0],"sum_hessian":[1.1E2,3.4E1,7.6E1,1.4E1,2E1,4.9E1,2.7E1,2E0,1.2E1,1E1,1E1,3.6E1,1.3E1],"tree_param":{"num_deleted":"0","num_feature":"20","num_nodes":"13","size_leaf_vector":"1"}},{"base_weights":[1.262247E-3,-3.6638442E-2,1.820121E-2,-6.819513E-2,-2.064836E-2,9.802205E-4,3.211867E-2,-4.2308266E-3,-9.079771E-3,-1.1955188E-3,-2.8345266E-3,3.457613E-3,-4.4700946E-4,1.3741256E-4,3.2835025E-3],"categories":[],"categories_nodes":[],"categories_segments":[],"categories_sizes":[],"default_left":[0,0,0,0,0,0,0,0,0,0,0,0,0,0,0],"id":24,"left_children":[1,3,5,7,9,11,13,-1,-1,-1,-1,-1,-1,-1,-1],"loss_changes":[7.0644684E-2,1.5748076E-2,1.8183626E-2,2.5947168E-3,1.2669796E-3,6.563349E-3,8.7988377E-4,0E0,0E0,0E0,0E0,0E0,0E0,0E0,0E0],"parents":[2147483647,0,0,1,1,2,2,3,3,4,4,5,5,6,6],"right_children":[2,4,6,8,10,12,14,-1,-1,-1,-1,-1,-1,-1,-1],"split_conditions":[-3.4703535E-1,-1.3646339E0,4.268081E-1,-1.5632124E0,-2.878058E-1,-6.714053E-1,-1.4504465E0,-4.2308266E-3,-9.079771E-3,-1.1955188E-3,-2.8345266E-3,3.457613E-3,-4.4700946E-4,1.3741256E-4,3.2835025E-3],"split_indices":[6,13,6,10,8,15,1,0,0,0,0,0,0,0,0],"split_type":[0,0,0,0,0,0,0,0,0,0,0,0,0,0,0],"sum_hessian":[1.08E2,3.3E1,7.5E1,1E1,2.3E1,3.4E1,4.1E1,6E0,4E0,1.2E1,1.1E1,4E0,3E1,1E0,4E1],"tree_param":{"num_deleted":"0","num_feature":"20","num_nodes":"15","size_leaf_vector":"1"}},{"base_weights":[-5.8312282E-5,-2.525349E-2,2.0867486E-2,-5.670969E-2,-1.4655389E-2,3.3761314E-3,3.1176502E-2,-1.09167695E-2,-4.2016446E-3,-1.7988337E-3,3.022512E-3,7.704388E-4,-4.5922757E-3,2.0235036E-3,3.3497082E-3],"categories":[],"categories_nodes":[],"categories_segments":[],"categories_sizes":[],"default_left":[0,0,0,0,0,0,0,0,0,0,0,0,0,0,0],"id":25,"left_children":[1,3,5,7,9,11,13,-1,-1,-1,-1,-1,-1,-1,-1],"loss_changes":[5.69405E-2,1.5504323E-2,1.0533541E-2,4.6625026E-3,6.227907E-3,5.2615064E-3,2.616346E-4,0E0,0E0,0E0,0E0,0E0,0E0,0E0,0E0],"parents":[2147483647,0,0,1,1,2,2,3,3,4,4,5,5,6,6],"right_children":[2,4,6,8,10,12,14,-1,-1,-1,-1,-1,-1,-1,-1],"split_conditions":[-3.4150228E-2,-1.3955754E0,4.106983E-1,-1.5192243E0,1.5945042E0,1.5036188E0,7.829768E-1,-1.09167695E-2,-4.2016446E-3,-1.7988337E-3,3.022512E-3,7.704388E-4,-4.5922757E-3,2.0235036E-3,3.3497082E-3],"split_indices":[13,13,10,1,17,0,16,0,0,0,0,0,0,0,0],"split_type":[0,0,0,0,0,0,0,0,0,0,0,0,0,0,0],"sum_hessian":[1.06E2,4.8E1,5.8E1,1.1E1,3.7E1,2.2E1,3.6E1,1E0,1E1,3.5E1,2E0,2.1E1,1E0,8E0,2.8E1],"tree_param":{"num_deleted":"0","num_feature":"20","num_nodes":"15","size_leaf_vector":"1"}},{"base_weights":[-2.3526219E-3,-3.4780584E-2,1.4130441E-2,-2.5985772E-2,-8.23523E-2,1.6462266E-2,-4.265714E-3,-3.352809E-3,-1.5705427E-3,-1.10616125E-2,-2.6637714E-3,3.518502E-4,2.6247809E-3],"categories":[],"categories_nodes":[],"categories_segments":[],"categories_sizes":[],"default_left":[0,0,0,0,0,0,0,0,0,0,0,0,0],"id":26,"left_children":[1,3,5,7,9,11,-1,-1,-1,-1,-1,-1,-1],"loss_changes":[5.5546213E-2,1.25034675E-2,9.839124E-3,1.8770918E-3,4.926976E-3,8.393986E-3,0E0,0E0,0E0,0E0,0E0,0E0,0E0],"parents":[2147483647,0,0,1,1,2,2,3,3,4,4,5,5],"right_children":[2,4,6,8,10,12,-1,-1,-1,-1,-1,-1,-1],"split_conditions":[-3.4703535E-1,1.5945042E0,3.446516E0,-7.9844403E-1,-6.6236204E-1,2.0295058E-1,-4.265714E-3,-3.352809E-3,-1.5705427E-3,-1.10616125E-2,-2.6637714E-3,3.518502E-4,2.6247809E-3],"split_indices":[6,17,17,6,2,16,0,0,0,0,0,0,0],"split_type":[0,0,0,0,0,0,0,0,0,0,0,0,0],"sum_hessian":[1.02E2,3.4E1,6.8E1,3E1,4E0,6.6E1,2E0,1.6E1,1.4E1,2E0,2E0,2.9E1,3.7E1],"tree_param":{"num_deleted":"0","num_feature":"20","num_nodes":"13","size_leaf_vector":"1"}},{"base_weights":[-3.3938992E-3,-3.6616676E-2,8.802164E-3,-2.7832685E-2,-8.675444E-2,-1.7358944E-2,1.4918217E-2,-4.4090985E-3,-1.8666507E-3,-1.0324168E-2,-1.864636E-3,1.1044741E-3,-2.4763236E-3,4.1231108E-4,2.3559572E-3],"categories":[],"categories_nodes":[],"categories_segments":[],"categories_sizes":[],"default_left":[0,0,0,0,0,0,0,0,0,0,0,0,0,0,0],"id":27,"left_children":[1,3,5,7,9,11,13,-1,-1,-1,-1,-1,-1,-1,-1],"loss_changes":[4.529807E-2,1.0797679E-2,1.3379188E-2,3.2006912E-3,2.5665779E-3,3.6384496E-3,6.152911E-3,0E0,0E0,0E0,0E0,0E0,0E0,0E0,0E0],"parents":[2147483647,0,0,1,1,2,2,3,3,4,4,5,5,6,6],"right_children":[2,4,6,8,10,12,14,-1,-1,-1,-1,-1,-1,-1,-1],"split_conditions":[-5.7273966E-1,1.5945042E0,-9.0022445E-1,-1.3646339E0,-6.6236204E-1,-6.193935E-1,2.0110376E-1,-4.4090985E-3,-1.8666507E-3,-1.0324168E-2,-1.864636E-3,1.1044741E-3,-2.4763236E-3,4.1231108E-4,2.3559572E-3],"split_indices":[6,17,1,13,2,5,6,0,0,0,0,0,0,0,0],"split_type":[0,0,0,0,0,0,0,0,0,0,0,0,0,0,0],"sum_hessian":[1.1E2,2.9E1,8.1E1,2.6E1,3E0,1.5E1,6.6E1,8E0,1.8E1,2E0,1E0,3E0,1.2E1,3E1,3.6E1],"tree_param":{"num_deleted":"0","num_feature":"20","num_nodes":"15","size_leaf_vector":"1"}},{"base_weights":[-6.1250164E-4,-3.748568E-2,9.031767E-3,-9.301639E-3,-3.0733543E-2,2.6251978E-4,2.4369746E-2,-3.459904E-3,-1.0671044E-3,-2.2345067E-3,5.548072E-4,-4.43697E-5,2.5184494E-3],"categories":[],"categories_nodes":[],"categories_segments":[],"categories_sizes":[],"default_left":[0,0,0,0,0,0,0,0,0,0,0,0,0],"id":28,"left_children":[1,3,5,-1,7,9,11,-1,-1,-1,-1,-1,-1],"loss_changes":[3.9456196E-2,5.765151E-3,1.1829826E-2,0E0,1.3369247E-3,6.9351047E-3,6.5810606E-4,0E0,0E0,0E0,0E0,0E0,0E0],"parents":[2147483647,0,0,1,1,2,2,4,4,5,5,6,6],"right_children":[2,4,6,-1,8,10,12,-1,-1,-1,-1,-1,-1],"split_conditions":[-7.6727504E-1,-1.5192243E0,8.357064E-1,-9.301639E-3,1.0532271E0,-7.836912E-1,5.7882977E-1,-3.459904E-3,-1.0671044E-3,-2.2345067E-3,5.548072E-4,-4.43697E-5,2.5184494E-3],"split_indices":[16,1,16,0,9,9,10,0,0,0,0,0,0],"split_type":[0,0,0,0,0,0,0,0,0,0,0,0,0],"sum_hessian":[1.09E2,2.2E1,8.7E1,1E0,2.1E1,5.6E1,3.1E1,1.7E1,4E0,1E1,4.6E1,1E0,3E1],"tree_param":{"num_deleted":"0","num_feature":"20","num_nodes":"13","size_leaf_vector":"1"}},{"base_weights":[-2.066127E-3,-2.5296846E-2,9.726915E-3,-8.836555E-3,-2.1311736E-2,1.7749654E-3,2.1469323E-2,-2.5940856E-3,-3.513363E-4,-3.0909737E-3,6.401948E-4,2.224712E-3,1.065743E-3],"categories":[],"categories_nodes":[],"categories_segments":[],"categories_sizes":[],"default_left":[0,0,0,0,0,0,0,0,0,0,0,0,0],"id":29,"left_children":[1,3,5,-1,7,9,11,-1,-1,-1,-1,-1,-1],"loss_changes":[3.1751554E-2,7.918876E-3,7.1517713E-3,0E0,3.0397102E-3,7.3057646E-3,2.3595057E-5,0E0,0E0,0E0,0E0,0E0,0E0],"parents":[2147483647,0,0,1,1,2,2,4,4,5,5,6,6],"right_children":[2,4,6,-1,8,10,12,-1,-1,-1,-1,-1,-1],"split_conditions":[-3.4703535E-1,-1.5192243E0,1.1106845E0,-8.836555E-3,-3.4465668E-1,-8.52215E-1,1.3432021E-1,-2.5940856E-3,-3.513363E-4,-3.0909737E-3,6.401948E-4,2.224712E-3,1.065743E-3],"split_indices":[6,1,13,0,2,9,17,0,0,0,0,0,0],"split_type":[0,0,0,0,0,0,0,0,0,0,0,0,0],"sum_hessian":[1.14E2,3.8E1,7.6E1,1E0,3.7E1,4.6E1,3E1,2.9E1,8E0,5E0,4.1E1,2.7E1,3E0],"tree_param":{"num_deleted":"0","num_feature":"20","num_nodes":"13","size_leaf_vector":"1"}},{"base_weights":[-1.6442614E-3,-1.488847E-2,1.75228E-2,-4.299283E-2,-6.330551E-3,1.9511472E-2,-2.288866E-3,-5.2079353E-3,-1.4403915E-3,-1.471735E-3,2.9804136E-4,2.0577032E-3,7.7240466E-4,3.6940575E-4,-7.508834E-4],"categories":[],"categories_nodes":[],"categories_segments":[],"categories_sizes":[],"default_left":[0,0,0,0,0,0,0,0,0,0,0,0,0,0,0],"id":30,"left_children":[1,3,5,7,9,11,13,-1,-1,-1,-1,-1,-1,-1,-1],"loss_changes":[2.7930818E-2,1.5361297E-2,1.8176101E-3,3.1464584E-3,4.026412E-3,3.560288E-4,1.8389142E-4,0E0,0E0,0E0,0E0,0E0,0E0,0E0,0E0],"parents":[2147483647,0,0,1,1,2,2,3,3,4,4,5,5,6,6],"right_children":[2,4,6,8,10,12,14,-1,-1,-1,-1,-1,-1,-1,-1],"split_conditions":[1.6886029E-1,-1.1065577E0,5.230693E-1,-4.3782026E-1,-5.669024E-1,1.7133377E0,-1.8883944E-1,-5.2079353E-3,-1.4403915E-3,-1.471735E-3,2.9804136E-4,2.0577032E-3,7.7240466E-4,3.6940575E-4,-7.508834E-4],"split_indices":[6,1,9,4,16,4,2,0,0,0,0,0,0,0,0],"split_type":[0,0,0,0,0,0,0,0,0,0,0,0,0,0,0],"sum_hessian":[1.08E2,6.4E1,4.4E1,1.4E1,5E1,4E1,4E0,1E1,4E0,2.6E1,2.4E1,3.6E1,4E0,2E0,2E0],"tree_param":{"num_deleted":"0","num_feature":"20","num_nodes":"15","size_leaf_vector":"1"}},{"base_weights":[-2.3795061E-3,-2.981581E-2,3.8413745E-3,-8.13433E-3,-2.317227E-2,-3.8157536E-3,1.6071154E-2,-8.312035E-4,-2.6367828E-3,-2.0580054E-3,-3.1659554E-5,8.2650187E-4,1.7670393E-3],"categories":[],"categories_nodes":[],"categories_segments":[],"categories_sizes":[],"default_left":[0,0,0,0,0,0,0,0,0,0,0,0,0],"id":31,"left_children":[1,3,5,-1,7,9,11,-1,-1,-1,-1,-1,-1],"loss_changes":[1.9401144E-2,5.303912E-3,8.7703075E-3,0E0,7.3056575E-4,3.3958186E-3,3.0337367E-4,0E0,0E0,0E0,0E0,0E0,0E0],"parents":[2147483647,0,0,1,1,2,2,4,4,5,5,6,6],"right_children":[2,4,6,-1,8,10,12,-1,-1,-1,-1,-1,-1],"split_conditions":[-7.9844403E-1,-1.5192243E0,5.2353853E-1,-8.13433E-3,-1.1828147E0,-1.1753355E0,7.829768E-1,-8.312035E-4,-2.6367828E-3,-2.0580054E-3,-3.1659554E-5,8.2650187E-4,1.7670393E-3],"split_indices":[6,1,6,0,7,1,16,0,0,0,0,0,0],"split_type":[0,0,0,0,0,0,0,0,0,0,0,0,0],"sum_hessian":[1.12E2,2E1,9.2E1,1E0,1.9E1,5.7E1,3.5E1,4E0,1.5E1,9E0,4.8E1,7E0,2.8E1],"tree_param":{"num_deleted":"0","num_feature":"20","num_nodes":"13","size_leaf_vector":"1"}},{"base_weights":[-2.599363E-3,-2.5772307E-2,4.8800283E-3,-1.4566944E-2,-5.570664E-2,-1.1096716E-2,1.0728175E-2,-2.2318622E-3,-1.7515289E-4,-8.343903E-3,-2.7925873E-3,-2.7402732E-4,-1.996372E-3,1.2205506E-3,-2.2394499E-3],"categories":[],"categories_nodes":[],"categories_segments":[],"categories_sizes":[],"default_left":[0,0,0,0,0,0,0,0,0,0,0,0,0,0,0],"id":32,"left_children":[1,3,5,7,9,11,13,-1,-1,-1,-1,-1,-1,-1,-1],"loss_changes":[1.9190915E-2,8.244999E-3,7.967532E-3,2.047068E-3,3.0628815E-3,1.6495162E-3,3.3071907E-3,0E0,0E0,0E0,0E0,0E0,0E0,0E0,0E0],"parents":[2147483647,0,0,1,1,2,2,3,3,4,4,5,5,6,6],"right_children":[2,4,6,8,10,12,14,-1,-1,-1,-1,-1,-1,-1,-1],"split_conditions":[-9.0022445E-1,1.5945042E0,-3.4703535E-1,-4.2155352E-1,-6.6236204E-1,2.7130166E-1,2.0674756E0,-2.2318622E-3,-1.7515289E-4,-8.343903E-3,-2.7925873E-3,-2.7402732E-4,-1.996372E-3,1.2205506E-3,-2.2394499E-3],"split_indices":[1,17,6,2,2,17,2,0,0,0,0,0,0,0,0],"split_type":[0,0,0,0,0,0,0,0,0,0,0,0,0,0,0],"sum_hessian":[1.09E2,2.6E1,8.3E1,2E1,6E0,2.2E1,6.1E1,1.2E1,8E0,2E0,4E0,1.2E1,1E1,5.9E1,2E0],"tree_param":{"num_deleted":"0","num_feature":"20","num_nodes":"15","size_leaf_vector":"1"}},{"base_weights":[-2.4565656E-3,-2.2638759E-2,5.596057E-3,-1.5951801E-2,-5.422058E-2,-2.9759526E-3,1.4244373E-2,-2.5191808E-3,-9.932254E-4,-7.787641E-3,-1.2491227E-3,2.3670634E-3,-7.458912E-4,1.5299696E-3,-1.2928963E-3],"categories":[],"categories_nodes":[],"categories_segments":[],"categories_sizes":[],"default_left":[0,0,0,0,0,0,0,0,0,0,0,0,0,0,0],"id":33,"left_children":[1,3,5,7,9,11,13,-1,-1,-1,-1,-1,-1,-1,-1],"loss_changes":[1.7678803E-2,5.681861E-3,5.8247996E-3,1.2515467E-3,3.9629387E-3,4.954779E-3,1.3161981E-3,0E0,0E0,0E0,0E0,0E0,0E0,0E0,0E0],"parents":[2147483647,0,0,1,1,2,2,3,3,4,4,5,5,6,6],"right_children":[2,4,6,8,10,12,14,-1,-1,-1,-1,-1,-1,-1,-1],"split_conditions":[-6.0498315E-1,1.5945042E0,2.6559073E-1,-1.3646339E0,-6.6236204E-1,-9.326411E-1,2.092803E0,-2.5191808E-3,-9.932254E-4,-7.787641E-3,-1.2491227E-3,2.3670634E-3,-7.458912E-4,1.5299696E-3,-1.2928963E-3],"split_indices":[6,17,6,13,2,5,17,0,0,0,0,0,0,0,0],"split_type":[0,0,0,0,0,0,0,0,0,0,0,0,0,0,0],"sum_hessian":[1.07E2,3E1,7.7E1,2.6E1,4E0,3.9E1,3.8E1,9E0,1.7E1,2E0,2E0,5E0,3.4E1,3.7E1,1E0],"tree_param":{"num_deleted":"0","num_feature":"20","num_nodes":"15","size_leaf_vector":"1"}},{"base_weights":[5.20457E-4,-2.410357E-2,5.867849E-3,-6.921029E-3,-1.8086886E-2,6.986541E-3,-2.9648861E-3,-3.2995088E-4,-2.465802E-3,1.0421276E-4,1.2166192E-3],"categories":[],"categories_nodes":[],"categories_segments":[],"categories_sizes":[],"default_left":[0,0,0,0,0,0,0,0,0,0,0],"id":34,"left_children":[1,3,5,-1,7,9,-1,-1,-1,-1,-1],"loss_changes":[1.4757287E-2,4.1760607E-3,3.862511E-3,0E0,1.7648679E-3,2.75842E-3,0E0,0E0,0E0,0E0,0E0],"parents":[2147483647,0,0,1,1,2,2,4,4,5,5],"right_children":[2,4,6,-1,8,10,-1,-1,-1,-1,-1],"split_conditions":[-8.516425E-1,-1.5192243E0,3.446516E0,-6.921029E-3,-1.0356957E0,2.3334724E-1,-2.9648861E-3,-3.2995088E-4,-2.465802E-3,1.0421276E-4,1.2166192E-3],"split_indices":[16,1,17,0,7,6,0,0,0,0,0],"split_type":[0,0,0,0,0,0,0,0,0,0,0],"sum_hessian":[1.1E2,1.9E1,9.1E1,1E0,1.8E1,8.9E1,2E0,6E0,1.2E1,4.2E1,4.7E1],"tree_param":{"num_deleted":"0","num_feature":"20","num_nodes":"11","size_leaf_vector":"1"}},{"base_weights":[-8.833365E-4,-1.7061897E-2,7.217881E-3,-1.1912682E-2,-5.656475E-2,1.9608338E-3,1.2712519E-2,-1.4194073E-3,8.746266E-4,-7.0412317E-3,-7.51102E-4,2.315847E-3,-1.8375972E-4,1.3857813E-3,8.571148E-6],"categories":[],"categories_nodes":[],"categories_segments":[],"categories_sizes":[],"default_left":[0,0,0,0,0,0,0,0,0,0,0,0,0,0,0],"id":35,"left_children":[1,3,5,7,9,11,13,-1,-1,-1,-1,-1,-1,-1,-1],"loss_changes":[1.4540414E-2,6.8522813E-3,2.1126047E-3,1.7266041E-3,2.1882309E-3,3.1827488E-3,5.194233E-4,0E0,0E0,0E0,0E0,0E0,0E0,0E0,0E0],"parents":[2147483647,0,0,1,1,2,2,3,3,4,4,5,5,6,6],"right_children":[2,4,6,8,10,12,14,-1,-1,-1,-1,-1,-1,-1,-1],"split_conditions":[-4.3369514E-1,1.5945042E0,6.8710256E-1,1.0358726E-2,-6.6236204E-1,-5.4267836E-1,1.1863953E0,-1.4194073E-3,8.746266E-4,-7.0412317E-3,-7.51102E-4,2.315847E-3,-1.8375972E-4,1.3857813E-3,8.571148E-6],"split_indices":[2,17,10,10,2,18,19,0,0,0,0,0,0,0,0],"split_type":[0,0,0,0,0,0,0,0,0,0,0,0,0,0,0],"sum_hessian":[1.09E2,3.6E1,7.3E1,3.3E1,3E0,3.8E1,3.5E1,3E1,3E0,2E0,1E0,5E0,3.3E1,3.2E1,3E0],"tree_param":{"num_deleted":"0","num_feature":"20","num_nodes":"15","size_leaf_vector":"1"}},{"base_weights":[-1.1037288E-3,-2.61587E-2,2.3364644E-3,-6.222916E-3,-1.7967066E-2,-4.227233E-3,9.420126E-3,-2.1505023E-3,-1.8485387E-5,-1.1364975E-3,2.7985664E-4,-1.0708094E-3,1.0105377E-3],"categories":[],"categories_nodes":[],"categories_segments":[],"categories_sizes":[],"default_left":[0,0,0,0,0,0,0,0,0,0,0,0,0],"id":36,"left_children":[1,3,5,-1,7,9,11,-1,-1,-1,-1,-1,-1],"loss_changes":[9.28387E-3,2.7231127E-3,4.456847E-3,0E0,7.509771E-4,2.539223E-3,7.4268226E-4,0E0,0E0,0E0,0E0,0E0,0E0],"parents":[2147483647,0,0,1,1,2,2,4,4,5,5,6,6],"right_children":[2,4,6,-1,8,10,12,-1,-1,-1,-1,-1,-1],"split_conditions":[-1.3646339E0,-1.5192243E0,2.6559073E-1,-6.222916E-3,-1.4755571E0,-1.2850769E-1,-1.2508929E0,-2.1505023E-3,-1.8485387E-5,-1.1364975E-3,2.7985664E-4,-1.0708094E-3,1.0105377E-3],"split_indices":[13,1,6,0,6,9,4,0,0,0,0,0,0],"split_type":[0,0,0,0,0,0,0,0,0,0,0,0,0],"sum_hessian":[1.06E2,1.2E1,9.4E1,1E0,1.1E1,4.9E1,4.5E1,9E0,2E0,2.4E1,2.5E1,1E0,4.4E1],"tree_param":{"num_deleted":"0","num_feature":"20","num_nodes":"13","size_leaf_vector":"1"}},{"base_weights":[-1.0262649E-3,-1.5200752E-2,5.3954385E-3,-1.0059026E-2,-6.3265003E-3,6.680405E-3,-2.6813904E-3,-1.7734766E-3,-1.7545969E-4,2.8352798E-3,5.307317E-4],"categories":[],"categories_nodes":[],"categories_segments":[],"categories_sizes":[],"default_left":[0,0,0,0,0,0,0,0,0,0,0],"id":37,"left_children":[1,3,5,7,-1,9,-1,-1,-1,-1,-1],"loss_changes":[9.639572E-3,7.5190114E-3,3.2004453E-3,1.9449044E-3,0E0,1.9623477E-3,0E0,0E0,0E0,0E0,0E0],"parents":[2147483647,0,0,1,1,2,2,3,3,5,5],"right_children":[2,4,6,8,-1,10,-1,-1,-1,-1,-1],"split_conditions":[-5.6118196E-1,1.5945042E0,3.446516E0,1.0532271E0,-6.3265003E-3,-1.013326E0,-2.6813904E-3,-1.7734766E-3,-1.7545969E-4,2.8352798E-3,5.307317E-4],"split_indices":[2,17,17,9,0,5,0,0,0,0,0],"split_type":[0,0,0,0,0,0,0,0,0,0,0],"sum_hessian":[1.04E2,3.2E1,7.2E1,3E1,2E0,7E1,2E0,1.5E1,1.5E1,3E0,6.7E1],"tree_param":{"num_deleted":"0","num_feature":"20","num_nodes":"11","size_leaf_vector":"1"}},{"base_weights":[-2.1844443E-3,-9.9038435E-3,7.5856876E-3,-3.3351034E-2,-6.3773906E-3,2.2111943E-3,1.053974E-2,-5.410735E-3,-1.7414371E-3,-1.3481401E-3,-1.7298017E-4,-2.641062E-4,9.2131796E-4,-2.9187204E-4,1.1068037E-3],"categories":[],"categories_nodes":[],"categories_segments":[],"categories_sizes":[],"default_left":[0,0,0,0,0,0,0,0,0,0,0,0,0,0,0],"id":38,"left_children":[1,3,5,7,9,11,13,-1,-1,-1,-1,-1,-1,-1,-1],"loss_changes":[8.5221175E-3,4.9964883E-3,7.7052135E-4,1.7040456E-3,1.8256048E-3,6.698657E-4,2.598262E-4,0E0,0E0,0E0,0E0,0E0,0E0,0E0,0E0],"parents":[2147483647,0,0,1,1,2,2,3,3,4,4,5,5,6,6],"right_children":[2,4,6,8,10,12,14,-1,-1,-1,-1,-1,-1,-1,-1],"split_conditions":[1.6886029E-1,-1.111032E0,7.829768E-1,1.5647607E-1,-8.71047E-1,9.9692607E-1,5.7882977E-1,-5.410735E-3,-1.7414371E-3,-1.3481401E-3,-1.7298017E-4,-2.641062E-4,9.2131796E-4,-2.9187204E-4,1.1068037E-3],"split_indices":[6,8,16,7,10,8,10,0,0,0,0,0,0,0,0],"split_type":[0,0,0,0,0,0,0,0,0,0,0,0,0,0,0],"sum_hessian":[1.11E2,6.2E1,4.9E1,7E0,5.5E1,1.8E1,3.1E1,2E0,5E0,2.1E1,3.4E1,1.1E1,7E0,1E0,3E1],"tree_param":{"num_deleted":"0","num_feature":"20","num_nodes":"15","size_leaf_vector":"1"}},{"base_weights":[-2.1571238E-3,-1.5251526E-2,2.3404418E-3,-2.330333E-3,-2.9981337E-2,3.3120215E-3,-2.4348497E-3,1.4443517E-3,-7.312261E-4,-1.9943106E-3,-5.6794407E-3,-2.6565985E-4,6.9463253E-4],"categories":[],"categories_nodes":[],"categories_segments":[],"categories_sizes":[],"default_left":[0,0,0,0,0,0,0,0,0,0,0,0,0],"id":39,"left_children":[1,3,5,7,9,11,-1,-1,-1,-1,-1,-1,-1],"loss_changes":[6.455025E-3,5.2592815E-3,2.206938E-3,1.4426726E-3,2.3663677E-3,1.7537959E-3,0E0,0E0,0E0,0E0,0E0,0E0,0E0],"parents":[2147483647,0,0,1,1,2,2,3,3,4,4,5,5],"right_children":[2,4,6,8,10,12,-1,-1,-1,-1,-1,-1,-1],"split_conditions":[-8.71047E-1,-7.5703263E-1,2.4414368E0,-1.7537295E0,1.4398725E0,5.530755E-2,-2.4348497E-3,1.4443517E-3,-7.312261E-4,-1.9943106E-3,-5.6794407E-3,-2.6565985E-4,6.9463253E-4],"split_indices":[10,5,17,5,17,16,0,0,0,0,0,0,0],"split_type":[0,0,0,0,0,0,0,0,0,0,0,0,0],"sum_hessian":[1.08E2,2.7E1,8.1E1,1.5E1,1.2E1,7.9E1,2E0,3E0,1.2E1,1E1,2E0,3E1,4.9E1],"tree_param":{"num_deleted":"0","num_feature":"20","num_nodes":"13","size_leaf_vector":"1"}},{"base_weights":[-9.609493E-4,-1.3600851E-2,3.2637913E-3,-5.0409436E-3,-1.0370554E-2,1.8784795E-2,1.8290373E-3,-5.335319E-4,-2.1662326E-3,2.8532266E-3,4.3411256E-4,-4.7577583E-4,6.5145857E-4],"categories":[],"categories_nodes":[],"categories_segments":[],"categories_sizes":[],"default_left":[0,0,0,0,0,0,0,0,0,0,0,0,0],"id":40,"left_children":[1,3,5,-1,7,9,11,-1,-1,-1,-1,-1,-1],"loss_changes":[5.9718248E-3,2.806501E-3,1.8362231E-3,0E0,1.4195563E-3,8.616627E-4,2.438289E-3,0E0,0E0,0E0,0E0,0E0,0E0],"parents":[2147483647,0,0,1,1,2,2,4,4,5,5,6,6],"right_children":[2,4,6,-1,8,10,12,-1,-1,-1,-1,-1,-1],"split_conditions":[-5.7273966E-1,-1.5192243E0,-1.013326E0,-5.0409436E-3,-1.1318206E-1,6.3334477E-1,2.6559073E-1,-5.335319E-4,-2.1662326E-3,2.8532266E-3,4.3411256E-4,-4.7577583E-4,6.5145857E-4],"split_indices":[6,1,5,0,8,7,6,0,0,0,0,0,0],"split_type":[0,0,0,0,0,0,0,0,0,0,0,0,0],"sum_hessian":[1.1E2,2.7E1,8.3E1,1E0,2.6E1,6E0,7.7E1,1.9E1,7E0,3E0,3E0,3.2E1,4.5E1],"tree_param":{"num_deleted":"0","num_feature":"20","num_nodes":"13","size_leaf_vector":"1"}},{"base_weights":[-1.5388429E-3,-1.1124508E-2,2.7821462E-3,-4.7888993E-3,-8.6347E-3,2.2734404E-2,1.104123E-3,-5.5535795E-4,-2.539449E-3,3.205532E-3,2.7283828E-4,-8.204523E-4,5.28049E-4],"categories":[],"categories_nodes":[],"categories_segments":[],"categories_sizes":[],"default_left":[0,0,0,0,0,0,0,0,0,0,0,0,0],"id":41,"left_children":[1,3,5,-1,7,9,11,-1,-1,-1,-1,-1,-1],"loss_changes":[4.66994E-3,2.7902708E-3,2.5863657E-3,0E0,1.6146938E-3,1.0313874E-3,2.881295E-3,0E0,0E0,0E0,0E0,0E0,0E0],"parents":[2147483647,0,0,1,1,2,2,4,4,5,5,6,6],"right_children":[2,4,6,-1,8,10,12,-1,-1,-1,-1,-1,-1],"split_conditions":[-3.4703535E-1,-1.5192243E0,-5.4267836E-1,-4.7888993E-3,-3.1141615E-1,-3.466733E-1,1.6886029E-1,-5.5535795E-4,-2.539449E-3,3.205532E-3,2.7283828E-4,-8.204523E-4,5.28049E-4],"split_indices":[6,1,18,0,14,3,6,0,0,0,0,0,0],"split_type":[0,0,0,0,0,0,0,0,0,0,0,0,0],"sum_hessian":[1.11E2,3.4E1,7.7E1,1E0,3.3E1,5E0,7.2E1,2.9E1,4E0,3E0,2E0,2.2E1,5E1],"tree_param":{"num_deleted":"0","num_feature":"20","num_nodes":"13","size_leaf_vector":"1"}},{"base_weights":[-1.1199177E-3,-1.3762891E-2,3.2108529E-3,-2.0511275E-2,5.671978E-3,4.141861E-3,-2.2686324E-3,-8.5482E-4,-2.5882227E-3,1.4027914E-3,5.4868062E-5,3.478138E-4,2.8288008E-3],"categories":[],"categories_nodes":[],"categories_segments":[],"categories_sizes":[],"default_left":[0,0,0,0,0,0,0,0,0,0,0,0,0],"id":42,"left_children":[1,3,5,7,9,11,-1,-1,-1,-1,-1,-1,-1],"loss_changes":[6.012357E-3,3.788651E-3,2.0710235E-3,1.1280682E-3,3.3478267E-4,1.1837194E-3,0E0,0E0,0E0,0E0,0E0,0E0,0E0],"parents":[2147483647,0,0,1,1,2,2,3,3,4,4,5,5],"right_children":[2,4,6,8,10,12,-1,-1,-1,-1,-1,-1,-1],"split_conditions":[-8.71047E-1,1.823819E0,3.446516E0,-1.5632124E0,-1.7537295E0,2.4414368E0,-2.2686324E-3,-8.5482E-4,-2.5882227E-3,1.4027914E-3,5.4868062E-5,3.478138E-4,2.8288008E-3],"split_indices":[10,9,17,10,5,17,0,0,0,0,0,0,0],"split_type":[0,0,0,0,0,0,0,0,0,0,0,0,0],"sum_hessian":[1.08E2,2.7E1,8.1E1,2E1,7E0,7.9E1,2E0,7E0,1.3E1,2E0,5E0,7.8E1,1E0],"tree_param":{"num_deleted":"0","num_feature":"20","num_nodes":"13","size_leaf_vector":"1"}},{"base_weights":[-2.8311433E-3,-1.3812912E-4,-1.7802402E-2,-3.0959956E-3,6.878226E-3,-3.1264722E-2,-3.857851E-3,-4.2187073E-4,1.4799357E-3,1.9479096E-3,4.491488E-4,-3.667617E-3,-1.0020257E-3,-9.839337E-4,6.0788397E-4],"categories":[],"categories_nodes":[],"categories_segments":[],"categories_sizes":[],"default_left":[0,0,0,0,0,0,0,0,0,0,0,0,0,0,0],"id":43,"left_children":[1,3,5,7,9,11,13,-1,-1,-1,-1,-1,-1,-1,-1],"loss_changes":[4.2309114E-3,1.8891047E-3,2.8830022E-3,1.3482785E-3,7.2453415E-4,5.5220164E-4,5.9473724E-4,0E0,0E0,0E0,0E0,0E0,0E0,0E0,0E0],"parents":[2147483647,0,0,1,1,2,2,3,3,4,4,5,5,6,6],"right_children":[2,4,6,8,10,12,14,-1,-1,-1,-1,-1,-1,-1,-1],"split_conditions":[1.333714E0,6.8710256E-1,-1.1065577E0,1.6380668E0,7.7759403E-1,-2.4511835E-1,1.5945042E0,-4.2187073E-4,1.4799357E-3,1.9479096E-3,4.491488E-4,-3.667617E-3,-1.0020257E-3,-9.839337E-4,6.0788397E-4],"split_indices":[17,10,1,19,10,9,17,0,0,0,0,0,0,0,0],"split_type":[0,0,0,0,0,0,0,0,0,0,0,0,0,0,0],"sum_hessian":[1.04E2,8.9E1,1.5E1,6.3E1,2.6E1,7E0,8E0,6E1,3E0,3E0,2.3E1,5E0,2E0,5E0,3E0],"tree_param":{"num_deleted":"0","num_feature":"20","num_nodes":"15","size_leaf_vector":"1"}},{"base_weights":[-1.6665227E-3,-3.578679E-2,-6.3654926E-4,-4.2366623E-3,-1.1313558E-3,-8.430822E-3,1.3920466E-3,-1.1317212E-3,3.069067E-4,7.452071E-5,2.6569606E-3],"categories":[],"categories_nodes":[],"categories_segments":[],"categories_sizes":[],"default_left":[0,0,0,0,0,0,0,0,0,0,0],"id":44,"left_children":[1,3,5,-1,-1,7,9,-1,-1,-1,-1],"loss_changes":[3.5969454E-3,3.7720893E-6,1.6086904E-3,0E0,0E0,7.3178974E-4,1.2993532E-3,0E0,0E0,0E0,0E0],"parents":[2147483647,0,0,1,1,2,2,5,5,6,6],"right_children":[2,4,6,-1,-1,8,10,-1,-1,-1,-1],"split_conditions":[-1.5192243E0,-6.6236204E-1,-9.0022445E-1,-4.2366623E-3,-1.1313558E-3,-1.5039101E-1,2.0143342E0,-1.1317212E-3,3.069067E-4,7.452071E-5,2.6569606E-3],"split_indices":[1,2,1,0,0,2,17,0,0,0,0],"split_type":[0,0,0,0,0,0,0,0,0,0,0],"sum_hessian":[1.02E2,2E0,1E2,1E0,1E0,2E1,8E1,1.6E1,4E0,7.9E1,1E0],"tree_param":{"num_deleted":"0","num_feature":"20","num_nodes":"11","size_leaf_vector":"1"}},{"base_weights":[-1.2966371E-3,-3.3997457E-2,-3.221362E-4,-4.0248274E-3,-1.074791E-3,-6.230116E-3,2.994794E-3,-4.3211188E-4,-2.6425044E-3,2.2571231E-3,1.3677459E-4],"categories":[],"categories_nodes":[],"categories_segments":[],"categories_sizes":[],"default_left":[0,0,0,0,0,0,0,0,0,0,0],"id":45,"left_children":[1,3,5,-1,-1,7,9,-1,-1,-1,-1],"loss_changes":[3.3032137E-3,3.4014229E-6,2.0174861E-3,0E0,0E0,1.3122404E-3,2.071347E-3,0E0,0E0,0E0,0E0],"parents":[2147483647,0,0,1,1,2,2,5,5,6,6],"right_children":[2,4,6,-1,-1,8,10,-1,-1,-1,-1],"split_conditions":[-1.5192243E0,-6.6236204E-1,-3.4703535E-1,-4.0248274E-3,-1.074791E-3,-9.800915E-2,-6.714053E-1,-4.3211188E-4,-2.6425044E-3,2.2571231E-3,1.3677459E-4],"split_indices":[1,2,6,0,0,14,15,0,0,0,0],"split_type":[0,0,0,0,0,0,0,0,0,0,0],"sum_hessian":[1.03E2,2E0,1.01E2,1E0,1E0,3.6E1,6.5E1,3.4E1,2E0,4E0,6.1E1],"tree_param":{"num_deleted":"0","num_feature":"20","num_nodes":"11","size_leaf_vector":"1"}},{"base_weights":[-1.6661419E-3,-1.3398314E-2,9.890218E-4,-5.864024E-3,-2.6552847E-2,-2.8483074E-3,4.3260804E-3,-7.72368E-4,9.15575E-4,-5.229294E-4,-4.123819E-3,-4.0940018E-4,2.4112582E-3,4.7478118E-4,-7.7476504E-4],"categories":[],"categories_nodes":[],"categories_segments":[],"categories_sizes":[],"default_left":[0,0,0,0,0,0,0,0,0,0,0,0,0,0,0],"id":46,"left_children":[1,3,5,7,9,11,13,-1,-1,-1,-1,-1,-1,-1,-1],"loss_changes":[3.3775417E-3,1.8264947E-3,1.1520018E-3,4.6175864E-4,1.9763587E-3,1.5092882E-3,2.8119422E-4,0E0,0E0,0E0,0E0,0E0,0E0,0E0,0E0],"parents":[2147483647,0,0,1,1,2,2,3,3,4,4,5,5,6,6],"right_children":[2,4,6,8,10,12,14,-1,-1,-1,-1,-1,-1,-1,-1],"split_conditions":[-1.0377799E0,1.4398725E0,5.530755E-2,1.0255909E-1,-1.2299854E0,2.4414368E0,1.1341304E0,-7.72368E-4,9.15575E-4,-5.229294E-4,-4.123819E-3,-4.0940018E-4,2.4112582E-3,4.7478118E-4,-7.7476504E-4],"split_indices":[1,17,16,2,4,17,8,0,0,0,0,0,0,0,0],"split_type":[0,0,0,0,0,0,0,0,0,0,0,0,0,0,0],"sum_hessian":[1.07E2,1.9E1,8.8E1,1.3E1,6E0,4.1E1,4.7E1,1.2E1,1E0,3E0,3E0,4E1,1E0,4.6E1,1E0],"tree_param":{"num_deleted":"0","num_feature":"20","num_nodes":"15","size_leaf_vector":"1"}},{"base_weights":[-8.0081547E-4,-6.865844E-3,3.8328702E-3,2.5370358E-3,-1.3113836E-2,-1.8925191E-3,4.5051808E-3,-6.927252E-5,2.1069923E-3,-1.5689798E-4,-1.7437164E-3,2.208674E-3,3.8548806E-4],"categories":[],"categories_nodes":[],"categories_segments":[],"categories_sizes":[],"default_left":[0,0,0,0,0,0,0,0,0,0,0,0,0],"id":47,"left_children":[1,3,5,7,9,-1,11,-1,-1,-1,-1,-1,-1],"loss_changes":[3.117694E-3,2.853228E-3,1.0491917E-3,1.2117318E-3,1.4200946E-3,0E0,6.237221E-4,0E0,0E0,0E0,0E0,0E0,0E0],"parents":[2147483647,0,0,1,1,2,2,3,3,4,4,6,6],"right_children":[2,4,6,8,10,-1,12,-1,-1,-1,-1,-1,-1],"split_conditions":[-3.4150228E-2,-6.193935E-1,-5.6118196E-1,1.096711E0,-9.315584E-1,-1.8925191E-3,-1.5192243E0,-6.927252E-5,2.1069923E-3,-1.5689798E-4,-1.7437164E-3,2.208674E-3,3.8548806E-4],"split_indices":[13,5,2,8,9,0,1,0,0,0,0,0,0],"split_type":[0,0,0,0,0,0,0,0,0,0,0,0,0],"sum_hessian":[1.09E2,4.7E1,6.2E1,1.9E1,2.8E1,1E0,6.1E1,1.7E1,2E0,8E0,2E1,1E0,6E1],"tree_param":{"num_deleted":"0","num_feature":"20","num_nodes":"13","size_leaf_vector":"1"}},{"base_weights":[-5.669663E-4,-1.1509459E-2,1.7299153E-3,-1.6903877E-3,-2.3571998E-2,1.1134148E-2,4.8612E-4,-5.069971E-4,5.491376E-4,-3.5156411E-4,-2.967151E-3,4.514098E-4,2.507623E-3,-5.018902E-4,3.0736564E-4],"categories":[],"categories_nodes":[],"categories_segments":[],"categories_sizes":[],"default_left":[0,0,0,0,0,0,0,0,0,0,0,0,0,0,0],"id":48,"left_children":[1,3,5,7,9,11,13,-1,-1,-1,-1,-1,-1,-1,-1],"loss_changes":[2.6086723E-3,2.092127E-3,1.0005243E-3,2.9482617E-4,8.743573E-4,8.0977625E-4,1.1122486E-3,0E0,0E0,0E0,0E0,0E0,0E0,0E0,0E0],"parents":[2147483647,0,0,1,1,2,2,3,3,4,4,5,5,6,6],"right_children":[2,4,6,8,10,12,14,-1,-1,-1,-1,-1,-1,-1,-1],"split_conditions":[-1.1065577E0,1.333714E0,-1.013326E0,3.9886374E-2,-1.2299854E0,-6.401024E-1,-3.4150228E-2,-5.069971E-4,5.491376E-4,-3.5156411E-4,-2.967151E-3,4.514098E-4,2.507623E-3,-5.018902E-4,3.0736564E-4],"split_indices":[1,17,5,6,4,2,13,0,0,0,0,0,0,0,0],"split_type":[0,0,0,0,0,0,0,0,0,0,0,0,0,0,0],"sum_hessian":[1.02E2,1.7E1,8.5E1,1E1,7E0,9E0,7.6E1,7E0,3E0,2E0,5E0,7E0,2E0,2.4E1,5.2E1],"tree_param":{"num_deleted":"0","num_feature":"20","num_nodes":"15","size_leaf_vector":"1"}},{"base_weights":[-2.6581243E-3,-2.834487E-2,-1.9199915E-3,-3.3818483E-3,-8.698821E-4,-3.6045816E-3,3.5315843E-3,-2.7449674E-4,-1.6465569E-3,-3.25644E-4,3.9333632E-4],"categories":[],"categories_nodes":[],"categories_segments":[],"categories_sizes":[],"default_left":[0,0,0,0,0,0,0,0,0,0,0],"id":49,"left_children":[1,3,5,-1,-1,7,9,-1,-1,-1,-1],"loss_changes":[2.0312038E-3,2.8423732E-5,1.0045663E-3,0E0,0E0,8.724079E-4,8.37181E-5,0E0,0E0,0E0,0E0],"parents":[2147483647,0,0,1,1,2,2,5,5,6,6],"right_children":[2,4,6,-1,-1,8,10,-1,-1,-1,-1],"split_conditions":[-1.5192243E0,2.0241022E-1,1.1106845E0,-3.3818483E-3,-8.698821E-4,1.4554775E0,-1.4504465E0,-2.7449674E-4,-1.6465569E-3,-3.25644E-4,3.9333632E-4],"split_indices":[1,0,13,0,0,4,1,0,0,0,0],"split_type":[0,0,0,0,0,0,0,0,0,0,0],"sum_hessian":[1.09E2,2E0,1.07E2,1E0,1E0,8.2E1,2.5E1,7.8E1,4E0,1E0,2.4E1],"tree_param":{"num_deleted":"0","num_feature":"20","num_nodes":"11","size_leaf_vector":"1"}},{"base_weights":[-3.6720757E-4,-1.3240576E-2,1.1812687E-3,-2.6535511E-2,-5.8605406E-3,-5.74406E-3,2.1017483E-3,-3.3766031E-3,-2.4219752E-4,-2.1687747E-4,-7.344961E-4,-8.884406E-4,6.6384475E-4,1.4480825E-4,1.5630126E-3],"categories":[],"categories_nodes":[],"categories_segments":[],"categories_sizes":[],"default_left":[0,0,0,0,0,0,0,0,0,0,0,0,0,0,0],"id":50,"left_children":[1,3,5,7,9,11,13,-1,-1,-1,-1,-1,-1,-1,-1],"loss_changes":[2.2283264E-3,1.0218928E-3,6.4953486E-4,6.156331E-4,3.339167E-5,5.2560295E-4,7.643966E-4,0E0,0E0,0E0,0E0,0E0,0E0,0E0,0E0],"parents":[2147483647,0,0,1,1,2,2,3,3,4,4,5,5,6,6],"right_children":[2,4,6,8,10,12,14,-1,-1,-1,-1,-1,-1,-1,-1],"split_conditions":[-1.4755571E0,-1.4774244E-1,-1.1065577E0,-6.6236204E-1,-1.2441132E0,1.0255909E-1,1.6380668E0,-3.3766031E-3,-2.4219752E-4,-2.1687747E-4,-7.344961E-4,-8.884406E-4,6.6384475E-4,1.4480825E-4,1.5630126E-3],"split_indices":[6,9,1,2,1,2,19,0,0,0,0,0,0,0,0],"split_type":[0,0,0,0,0,0,0,0,0,0,0,0,0,0,0],"sum_hessian":[1.1E2,1.1E1,9.9E1,3E0,8E0,1.1E1,8.8E1,2E0,1E0,3E0,5E0,9E0,2E0,8.5E1,3E0],"tree_param":{"num_deleted":"0","num_feature":"20","num_nodes":"15","size_leaf_vector":"1"}},{"base_weights":[-9.2570885E-4,-3.0439259E-3,-3.9980703E-4,-2.123989E-3,4.971751E-3,1.996482E-4,-4.6790266E-4,2.1587014E-3,3.5568522E-4],"categories":[],"categories_nodes":[],"categories_segments":[],"categories_sizes":[],"default_left":[0,0,0,0,0,0,0,0,0],"id":51,"left_children":[1,-1,3,5,7,-1,-1,-1,-1],"loss_changes":[1.7727714E-3,0E0,1.0663759E-3,9.2527387E-4,5.8146793E-4,0E0,0E0,0E0,0E0],"parents":[2147483647,0,0,2,2,3,3,4,4],"right_children":[2,-1,4,6,8,-1,-1,-1,-1],"split_conditions":[-2.1849136E0,-3.0439259E-3,9.5597714E-1,-3.061459E-1,-1.5192243E0,1.996482E-4,-4.6790266E-4,2.1587014E-3,3.5568522E-4],"split_indices":[6,0,13,5,1,0,0,0,0],"split_type":[0,0,0,0,0,0,0,0,0],"sum_hessian":[1.14E2,1E0,1.13E2,8.6E1,2.7E1,3.3E1,5.3E1,1E0,2.6E1],"tree_param":{"num_deleted":"0","num_feature":"20","num_nodes":"9","size_leaf_vector":"1"}},{"base_weights":[3.352209E-4,-1.1380632E-2,1.7663946E-3,-2.8917312E-3,-7.1575423E-3,2.162695E-3,-1.8337369E-3,-2.7447045E-4,-1.4193833E-3,9.0600346E-4,1.08236425E-4],"categories":[],"categories_nodes":[],"categories_segments":[],"categories_sizes":[],"default_left":[0,0,0,0,0,0,0,0,0,0,0],"id":52,"left_children":[1,3,5,-1,7,9,-1,-1,-1,-1,-1],"loss_changes":[1.8477516E-3,6.817309E-4,8.204367E-4,0E0,3.0259223E-4,7.129803E-4,0E0,0E0,0E0,0E0,0E0],"parents":[2147483647,0,0,1,1,2,2,4,4,5,5],"right_children":[2,4,6,-1,8,10,-1,-1,-1,-1,-1],"split_conditions":[-1.3646339E0,-1.5192243E0,3.446516E0,-2.8917312E-3,-1.622345E0,-6.714053E-1,-1.8337369E-3,-2.7447045E-4,-1.4193833E-3,9.0600346E-4,1.08236425E-4],"split_indices":[13,1,17,0,14,15,0,0,0,0,0],"split_type":[0,0,0,0,0,0,0,0,0,0,0],"sum_hessian":[1.08E2,1.1E1,9.7E1,1E0,1E1,9.6E1,1E0,7E0,3E0,1.2E1,8.4E1],"tree_param":{"num_deleted":"0","num_feature":"20","num_nodes":"11","size_leaf_vector":"1"}},{"base_weights":[-3.4180757E-6,-8.670817E-3,2.3419184E-3,3.7376087E-3,-1.2325247E-2,1.3186269E-2,1.0439823E-3,6.424523E-4,-4.8484802E-4,-6.538695E-4,-1.8741101E-3,1.60622E-3,-4.9105886E-4,1.516154E-4,-1.7420531E-3],"categories":[],"categories_nodes":[],"categories_segments":[],"categories_sizes":[],"default_left":[0,0,0,0,0,0,0,0,0,0,0,0,0,0,0],"id":53,"left_children":[1,3,5,7,9,11,13,-1,-1,-1,-1,-1,-1,-1,-1],"loss_changes":[2.1953988E-3,1.0890185E-3,1.1826319E-3,1.6956966E-4,5.457199E-4,5.4728286E-4,6.977304E-4,0E0,0E0,0E0,0E0,0E0,0E0,0E0,0E0],"parents":[2147483647,0,0,1,1,2,2,3,3,4,4,5,5,6,6],"right_children":[2,4,6,8,10,12,14,-1,-1,-1,-1,-1,-1,-1,-1],"split_conditions":[-8.71047E-1,-1.5923595E0,-6.714053E-1,1.2836301E0,8.7819606E-1,1.1091841E0,2.092803E0,6.424523E-4,-4.8484802E-4,-6.538695E-4,-1.8741101E-3,1.60622E-3,-4.9105886E-4,1.516154E-4,-1.7420531E-3],"split_indices":[10,5,15,17,17,8,17,0,0,0,0,0,0,0,0],"split_type":[0,0,0,0,0,0,0,0,0,0,0,0,0,0,0],"sum_hessian":[1.06E2,2.2E1,8.4E1,5E0,1.7E1,8E0,7.6E1,4E0,1E0,1E1,7E0,7E0,1E0,7.5E1,1E0],"tree_param":{"num_deleted":"0","num_feature":"20","num_nodes":"15","size_leaf_vector":"1"}},{"base_weights":[-4.7932565E-4,-6.0118376E-3,2.5587538E-3,-2.6534318E-3,-4.805253E-3,1.962465E-2,1.5470062E-3,-2.0449737E-4,-1.1645512E-3,2.2982995E-3,4.774809E-4,2.0982027E-4,-1.146245E-3],"categories":[],"categories_nodes":[],"categories_segments":[],"categories_sizes":[],"default_left":[0,0,0,0,0,0,0,0,0,0,0,0,0],"id":54,"left_children":[1,3,5,-1,7,9,11,-1,-1,-1,-1,-1,-1],"loss_changes":[1.8979026E-3,8.629804E-4,1.2300864E-3,0E0,7.1254524E-4,8.9744106E-5,5.2600424E-4,0E0,0E0,0E0,0E0,0E0,0E0],"parents":[2147483647,0,0,1,1,2,2,4,4,5,5,6,6],"right_children":[2,4,6,-1,8,10,12,-1,-1,-1,-1,-1,-1],"split_conditions":[-4.2155352E-1,-1.5192243E0,-3.790579E-1,-2.6534318E-3,8.7219477E-1,-4.1878012E-1,2.199451E0,-2.0449737E-4,-1.1645512E-3,2.2982995E-3,4.774809E-4,2.0982027E-4,-1.146245E-3],"split_indices":[2,1,2,0,8,1,19,0,0,0,0,0,0],"split_type":[0,0,0,0,0,0,0,0,0,0,0,0,0],"sum_hessian":[1.11E2,3.9E1,7.2E1,1E0,3.8E1,3E0,6.9E1,2.8E1,1E1,2E0,1E0,6.7E1,2E0],"tree_param":{"num_deleted":"0","num_feature":"20","num_nodes":"13","size_leaf_vector":"1"}},{"base_weights":[-7.1113417E-4,-2.520764E-3,-2.4660947E-4,-1.9172179E-3,3.728792E-3,-1.157517E-3,-6.1076535E-5,1.9228578E-3,2.6085225E-4],"categories":[],"categories_nodes":[],"categories_segments":[],"categories_sizes":[],"default_left":[0,0,0,0,0,0,0,0,0],"id":55,"left_children":[1,-1,3,5,7,-1,-1,-1,-1],"loss_changes":[1.2227406E-3,0E0,7.1777223E-4,9.518721E-4,5.05488E-4,0E0,0E0,0E0,0E0],"parents":[2147483647,0,0,2,2,3,3,4,4],"right_children":[2,-1,4,6,8,-1,-1,-1,-1],"split_conditions":[-2.1849136E0,-2.520764E-3,7.829768E-1,-1.111032E0,-1.5192243E0,-1.157517E-3,-6.1076535E-5,1.9228578E-3,2.6085225E-4],"split_indices":[6,0,16,8,1,0,0,0,0],"split_type":[0,0,0,0,0,0,0,0,0],"sum_hessian":[1.07E2,1E0,1.06E2,7.5E1,3.1E1,8E0,6.7E1,1E0,3E1],"tree_param":{"num_deleted":"0","num_feature":"20","num_nodes":"9","size_leaf_vector":"1"}},{"base_weights":[4.73675E-5,-2.394724E-3,5.5738713E-4,-1.0668039E-3,1.0446873E-3,2.415465E-4,-3.9423467E-4],"categories":[],"categories_nodes":[],"categories_segments":[],"categories_sizes":[],"default_left":[0,0,0,0,0,0,0],"id":56,"left_children":[1,-1,3,-1,5,-1,-1],"loss_changes":[1.1759313E-3,0E0,5.2533916E-4,0E0,6.31609E-4,0E0,0E0],"parents":[2147483647,0,0,2,2,4,4],"right_children":[2,-1,4,-1,6,-1,-1],"split_conditions":[-1.5192243E0,-2.394724E-3,-1.5689352E0,-1.0668039E-3,7.795021E-1,2.415465E-4,-3.9423467E-4],"split_indices":[1,0,2,0,3,0,0],"split_type":[0,0,0,0,0,0,0],"sum_hessian":[9.4E1,1E0,9.3E1,3E0,9E1,7.1E1,1.9E1],"tree_param":{"num_deleted":"0","num_feature":"20","num_nodes":"7","size_leaf_vector":"1"}},{"base_weights":[-1.0754509E-3,-6.4616743E-3,9.739195E-4,-4.2950944E-3,-2.525139E-3,1.296215E-2,1.9295704E-4,-1.6018987E-3,-2.3262226E-4,2.1313827E-3,2.8975806E-5,1.9464493E-3,-3.1010826E-5],"categories":[],"categories_nodes":[],"categories_segments":[],"categories_sizes":[],"default_left":[0,0,0,0,0,0,0,0,0,0,0,0,0],"id":57,"left_children":[1,3,5,7,-1,9,11,-1,-1,-1,-1,-1,-1],"loss_changes":[1.2425901E-3,1.1535349E-3,7.6521235E-4,6.321387E-4,0E0,5.2300264E-4,7.622337E-4,0E0,0E0,0E0,0E0,0E0,0E0],"parents":[2147483647,0,0,1,1,2,2,3,3,5,5,6,6],"right_children":[2,4,6,8,-1,10,12,-1,-1,-1,-1,-1,-1],"split_conditions":[-5.6118196E-1,1.5945042E0,-1.013326E0,-5.569416E-1,-2.525139E-3,-2.1806145E-1,-1.7742807E0,-1.6018987E-3,-2.3262226E-4,2.1313827E-3,2.8975806E-5,1.9464493E-3,-3.1010826E-5],"split_indices":[2,17,5,19,0,6,9,0,0,0,0,0,0],"split_type":[0,0,0,0,0,0,0,0,0,0,0,0,0],"sum_hessian":[1.11E2,3E1,8.1E1,2.8E1,2E0,4E0,7.7E1,3E0,2.5E1,2E0,2E0,1E0,7.6E1],"tree_param":{"num_deleted":"0","num_feature":"20","num_nodes":"13","size_leaf_vector":"1"}},{"base_weights":[3.6264147E-4,-5.3430507E-3,2.5068289E-3,-1.2976452E-2,-6.425004E-4,1.2040694E-2,1.2269504E-3,-1.7727137E-3,-3.7302016E-4,-3.2867593E-4,7.4187753E-4,-1.6521216E-4,1.9162456E-3,1.6916079E-4,-1.5184879E-3],"categories":[],"categories_nodes":[],"categories_segments":[],"categories_sizes":[],"default_left":[0,0,0,0,0,0,0,0,0,0,0,0,0,0,0],"id":58,"left_children":[1,3,5,7,9,11,13,-1,-1,-1,-1,-1,-1,-1,-1],"loss_changes":[1.2979719E-3,1.0322172E-3,9.247953E-4,4.1706034E-4,4.293896E-4,9.093116E-4,5.5187254E-4,0E0,0E0,0E0,0E0,0E0,0E0,0E0,0E0],"parents":[2147483647,0,0,1,1,2,2,3,3,4,4,5,5,6,6],"right_children":[2,4,6,8,10,12,14,-1,-1,-1,-1,-1,-1,-1,-1],"split_conditions":[-8.71047E-1,2.1763759E-2,-6.714053E-1,-6.6236204E-1,1.9151841E0,-1.1826446E0,3.7040422E0,-1.7727137E-3,-3.7302016E-4,-3.2867593E-4,7.4187753E-4,-1.6521216E-4,1.9162456E-3,1.6916079E-4,-1.5184879E-3],"split_indices":[10,9,15,2,9,15,17,0,0,0,0,0,0,0,0],"split_type":[0,0,0,0,0,0,0,0,0,0,0,0,0,0,0],"sum_hessian":[1.04E2,2.8E1,7.6E1,1E1,1.8E1,8E0,6.8E1,6E0,4E0,1.4E1,4E0,3E0,5E0,6.7E1,1E0],"tree_param":{"num_deleted":"0","num_feature":"20","num_nodes":"15","size_leaf_vector":"1"}},{"base_weights":[-8.8772606E-5,-5.7376195E-3,1.5170221E-3,-2.0601035E-3,-4.259934E-3,1.0016108E-2,4.219858E-4,2.3525358E-4,-7.1211E-4,1.366514E-3,-3.0533475E-4,-2.0495134E-4,3.7533676E-4],"categories":[],"categories_nodes":[],"categories_segments":[],"categories_sizes":[],"default_left":[0,0,0,0,0,0,0,0,0,0,0,0,0],"id":59,"left_children":[1,3,5,-1,7,9,11,-1,-1,-1,-1,-1,-1],"loss_changes":[1.0246437E-3,4.613272E-4,8.1477256E-4,0E0,4.7081755E-4,5.1863294E-4,6.581397E-4,0E0,0E0,0E0,0E0,0E0,0E0],"parents":[2147483647,0,0,1,1,2,2,4,4,5,5,6,6],"right_children":[2,4,6,-1,8,10,12,-1,-1,-1,-1,-1,-1],"split_conditions":[-5.7273966E-1,-1.5192243E0,-5.4267836E-1,-2.0601035E-3,-9.7382766E-1,-1.2133101E-1,7.829768E-1,2.3525358E-4,-7.1211E-4,1.366514E-3,-3.0533475E-4,-2.0495134E-4,3.7533676E-4],"split_indices":[6,1,18,0,8,6,16,0,0,0,0,0,0],"split_type":[0,0,0,0,0,0,0,0,0,0,0,0,0],"sum_hessian":[1.11E2,2.4E1,8.7E1,1E0,2.3E1,9E0,7.8E1,7E0,1.6E1,7E0,2E0,4.5E1,3.3E1],"tree_param":{"num_deleted":"0","num_feature":"20","num_nodes":"13","size_leaf_vector":"1"}},{"base_weights":[1.3932966E-4,-5.1555973E-3,1.9238915E-3,-1.1236147E-2,-1.1532836E-3,2.8285321E-3,-6.9106817E-3,-1.7084837E-3,-3.514767E-4,1.2259994E-4,-7.5846195E-4,3.3583576E-4,-1.1183341E-3,-1.3227654E-3,2.7132034E-4],"categories":[],"categories_nodes":[],"categories_segments":[],"categories_sizes":[],"default_left":[0,0,0,0,0,0,0,0,0,0,0,0,0,0,0],"id":60,"left_children":[1,3,5,7,9,11,13,-1,-1,-1,-1,-1,-1,-1,-1],"loss_changes":[1.0493224E-3,6.684571E-4,6.828926E-4,4.367103E-4,2.847342E-4,6.017701E-4,5.222398E-4,0E0,0E0,0E0,0E0,0E0,0E0,0E0,0E0],"parents":[2147483647,0,0,1,1,2,2,3,3,4,4,5,5,6,6],"right_children":[2,4,6,8,10,12,14,-1,-1,-1,-1,-1,-1,-1,-1],"split_conditions":[-8.71047E-1,2.1763759E-2,1.7133377E0,-8.373874E-1,-9.4168425E-1,3.446516E0,1.1039212E0,-1.7084837E-3,-3.514767E-4,1.2259994E-4,-7.5846195E-4,3.3583576E-4,-1.1183341E-3,-1.3227654E-3,2.7132034E-4],"split_indices":[10,9,4,4,10,17,6,0,0,0,0,0,0,0,0],"split_type":[0,0,0,0,0,0,0,0,0,0,0,0,0,0,0],"sum_hessian":[1.09E2,2.7E1,8.2E1,1E1,1.7E1,7.5E1,7E0,5E0,5E0,1.3E1,4E0,7.3E1,2E0,4E0,3E0],"tree_param":{"num_deleted":"0","num_feature":"20","num_nodes":"15","size_leaf_vector":"1"}},{"base_weights":[1.9284162E-4,-5.7168803E-3,1.1142269E-3,-1.426363E-3,-1.1914928E-2,6.376326E-3,-2.670226E-4,-3.381133E-4,4.2618118E-4,-3.1726362E-4,-1.9599677E-3,1.0223591E-3,-6.725192E-5,1.504902E-4,-6.609398E-4],"categories":[],"categories_nodes":[],"categories_segments":[],"categories_sizes":[],"default_left":[0,0,0,0,0,0,0,0,0,0,0,0,0,0,0],"id":61,"left_children":[1,3,5,7,9,11,13,-1,-1,-1,-1,-1,-1,-1,-1],"loss_changes":[6.053343E-4,3.8189744E-4,6.994567E-4,1.2560048E-4,3.4091127E-4,5.492511E-4,8.7528874E-4,0E0,0E0,0E0,0E0,0E0,0E0,0E0,0E0],"parents":[2147483647,0,0,1,1,2,2,3,3,4,4,5,5,6,6],"right_children":[2,4,6,8,10,12,14,-1,-1,-1,-1,-1,-1,-1,-1],"split_conditions":[-9.420693E-1,2.7130166E-1,-5.434547E-1,-1.3054213E-1,-7.2116524E-1,4.0655297E-1,6.0142374E-1,-3.381133E-4,4.2618118E-4,-3.1726362E-4,-1.9599677E-3,1.0223591E-3,-6.725192E-5,1.504902E-4,-6.609398E-4],"split_indices":[3,17,5,17,7,1,17,0,0,0,0,0,0,0,0],"split_type":[0,0,0,0,0,0,0,0,0,0,0,0,0,0,0],"sum_hessian":[1.09E2,1.4E1,9.5E1,9E0,5E0,1.9E1,7.6E1,7E0,2E0,3E0,2E0,1.2E1,7E0,6E1,1.6E1],"tree_param":{"num_deleted":"0","num_feature":"20","num_nodes":"15","size_leaf_vector":"1"}},{"base_weights":[-9.846933E-4,-5.0476653E-4,-1.3216615E-2,-1.7736674E-3,-1.6526574E-4,-1.5622377E-4,-1.6580662E-3,2.2968916E-5,-1.3406993E-3],"categories":[],"categories_nodes":[],"categories_segments":[],"categories_sizes":[],"default_left":[0,0,0,0,0,0,0,0,0],"id":62,"left_children":[1,3,5,-1,7,-1,-1,-1,-1],"loss_changes":[6.2146434E-4,6.054943E-4,1.3092055E-4,0E0,5.417575E-4,0E0,0E0,0E0,0E0],"parents":[2147483647,0,0,1,1,2,2,4,4],"right_children":[2,4,6,-1,8,-1,-1,-1,-1],"split_conditions":[2.092803E0,-2.1849136E0,-1.3816687E0,-1.7736674E-3,2.0674756E0,-1.5622377E-4,-1.6580662E-3,2.2968916E-5,-1.3406993E-3],"split_indices":[17,6,1,0,2,0,0,0,0],"split_type":[0,0,0,0,0,0,0,0,0],"sum_hessian":[1.06E2,1.03E2,3E0,1E0,1.02E2,1E0,2E0,1E2,2E0],"tree_param":{"num_deleted":"0","num_feature":"20","num_nodes":"9","size_leaf_vector":"1"}},{"base_weights":[2.6055254E-4,-7.854515E-3,1.018626E-3,-1.1507273E-3,-1.5946567E-2,1.5888476E-3,-7.799506E-3,-2.1090508E-4,-1.4430285E-5,-1.9505582E-3,-2.6347637E-4,9.260961E-4,9.383342E-5,-1.6265551E-3,4.9990416E-5],"categories":[],"categories_nodes":[],"categories_segments":[],"categories_sizes":[],"default_left":[0,0,0,0,0,0,0,0,0,0,0,0,0,0,0],"id":63,"left_children":[1,3,5,7,9,11,13,-1,-1,-1,-1,-1,-1,-1,-1],"loss_changes":[6.477898E-4,4.698764E-4,4.951081E-4,5.4825396E-6,1.381149E-4,4.454741E-4,4.297103E-4,0E0,0E0,0E0,0E0,0E0,0E0,0E0,0E0],"parents":[2147483647,0,0,1,1,2,2,3,3,4,4,5,5,6,6],"right_children":[2,4,6,8,10,12,14,-1,-1,-1,-1,-1,-1,-1,-1],"split_conditions":[-1.4755571E0,-1.5632124E0,1.7133377E0,-1.325231E0,-1.1068629E0,-1.3355483E0,8.459733E-1,-2.1090508E-4,-1.4430285E-5,-1.9505582E-3,-2.6347637E-4,9.260961E-4,9.383342E-5,-1.6265551E-3,4.9990416E-5],"split_indices":[6,10,4,4,4,8,6,0,0,0,0,0,0,0,0],"split_type":[0,0,0,0,0,0,0,0,0,0,0,0,0,0,0],"sum_hessian":[1.03E2,8E0,9.5E1,5E0,3E0,9E1,5E0,2E0,3E0,2E0,1E0,6E0,8.4E1,2E0,3E0],"tree_param":{"num_deleted":"0","num_feature":"20","num_nodes":"15","size_leaf_vector":"1"}},{"base_weights":[-1.5505956E-4,-1.4952074E-3,3.2651578E-3,-9.898251E-3,-1.3392213E-4,1.7501354E-3,2.2072394E-3,-1.8286109E-3,1.3931592E-5,-6.2145555E-5,1.6509176E-3,-3.1153363E-4,2.6986856E-4],"categories":[],"categories_nodes":[],"categories_segments":[],"categories_sizes":[],"default_left":[0,0,0,0,0,0,0,0,0,0,0,0,0],"id":64,"left_children":[1,3,5,7,9,-1,11,-1,-1,-1,-1,-1,-1],"loss_changes":[5.044942E-4,9.023506E-4,4.2825306E-4,9.286781E-4,5.7013024E-4,0E0,8.688007E-5,0E0,0E0,0E0,0E0,0E0,0E0],"parents":[2147483647,0,0,1,1,2,2,3,3,4,4,6,6],"right_children":[2,4,6,8,10,-1,12,-1,-1,-1,-1,-1,-1],"split_conditions":[7.829768E-1,-1.111032E0,3.9456463E-1,1.3287433E0,2.4414368E0,1.7501354E-3,3.323011E-2,-1.8286109E-3,1.3931592E-5,-6.2145555E-5,1.6509176E-3,-3.1153363E-4,2.6986856E-4],"split_indices":[16,8,6,3,17,0,11,0,0,0,0,0,0],"split_type":[0,0,0,0,0,0,0,0,0,0,0,0,0],"sum_hessian":[1.08E2,7.8E1,3E1,1E1,6.8E1,1E0,2.9E1,5E0,5E0,6.7E1,1E0,2E0,2.7E1],"tree_param":{"num_deleted":"0","num_feature":"20","num_nodes":"13","size_leaf_vector":"1"}},{"base_weights":[3.7262314E-5,6.827804E-4,-6.0692052E-3,6.8156405E-5,1.0710279E-2,-9.774923E-4,-2.5552341E-3,1.15331204E-4,-4.8791172E-4,1.1475881E-5,1.597935E-3,-4.216254E-4,-2.554059E-5],"categories":[],"categories_nodes":[],"categories_segments":[],"categories_sizes":[],"default_left":[0,0,0,0,0,0,0,0,0,0,0,0,0],"id":65,"left_children":[1,3,5,7,9,-1,11,-1,-1,-1,-1,-1,-1],"loss_changes":[4.5351312E-4,6.402367E-4,1.182624E-4,5.3711474E-4,3.331374E-4,0E0,2.5663569E-5,0E0,0E0,0E0,0E0,0E0,0E0],"parents":[2147483647,0,0,1,1,2,2,3,3,4,4,6,6],"right_children":[2,4,6,8,10,-1,12,-1,-1,-1,-1,-1,-1],"split_conditions":[1.1091841E0,1.096711E0,-1.8513174E-1,1.2836301E0,-9.690022E-1,-9.774923E-4,-4.9035594E-1,1.15331204E-4,-4.8791172E-4,1.1475881E-5,1.597935E-3,-4.216254E-4,-2.554059E-5],"split_indices":[8,8,3,17,1,0,2,0,0,0,0,0,0],"split_type":[0,0,0,0,0,0,0,0,0,0,0,0,0],"sum_hessian":[1.13E2,1.03E2,1E1,9.8E1,5E0,4E0,6E0,8.1E1,1.7E1,2E0,3E0,3E0,3E0],"tree_param":{"num_deleted":"0","num_feature":"20","num_nodes":"13","size_leaf_vector":"1"}},{"base_weights":[2.9929096E-4,-1.4716387E-3,5.879518E-4,6.036854E-3,2.026558E-6,1.1139597E-4,1.3142705E-3,5.31697E-5,-1.2048483E-3],"categories":[],"categories_nodes":[],"categories_segments":[],"categories_sizes":[],"default_left":[0,0,0,0,0,0,0,0,0],"id":66,"left_children":[1,-1,3,5,7,-1,-1,-1,-1],"loss_changes":[4.5943406E-4,0E0,3.2883062E-4,3.3517307E-4,6.063892E-4,0E0,0E0,0E0,0E0],"parents":[2147483647,0,0,2,2,3,3,4,4],"right_children":[2,-1,4,6,8,-1,-1,-1,-1],"split_conditions":[-2.1849136E0,-1.4716387E-3,-1.3355483E0,-1.410387E0,1.5615753E0,1.1139597E-4,1.3142705E-3,5.31697E-5,-1.2048483E-3],"split_indices":[6,0,8,8,2,0,0,0,0],"split_type":[0,0,0,0,0,0,0,0,0],"sum_hessian":[1.03E2,1E0,1.02E2,9E0,9.3E1,6E0,3E0,9E1,3E0],"tree_param":{"num_deleted":"0","num_feature":"20","num_nodes":"9","size_leaf_vector":"1"}},{"base_weights":[-5.1127566E-4,-1.3980508E-3,-2.5944316E-4,4.561201E-4,-4.447162E-3,-7.311245E-5,5.509549E-4,1.06143954E-4,-1.0088444E-3],"categories":[],"categories_nodes":[],"categories_segments":[],"categories_sizes":[],"default_left":[0,0,0,0,0,0,0,0,0],"id":67,"left_children":[1,-1,3,5,7,-1,-1,-1,-1],"loss_changes":[3.6949178E-4,0E0,3.2865544E-4,5.679958E-4,5.079175E-4,0E0,0E0,0E0,0E0],"parents":[2147483647,0,0,2,2,3,3,4,4],"right_children":[2,-1,4,6,8,-1,-1,-1,-1],"split_conditions":[-2.1849136E0,-1.3980508E-3,9.630944E-1,5.6739485E-1,1.3432021E-1,-7.311245E-5,5.509549E-4,1.06143954E-4,-1.0088444E-3],"split_indices":[6,0,7,7,17,0,0,0,0],"split_type":[0,0,0,0,0,0,0,0,0],"sum_hessian":[1.09E2,1E0,1.08E2,9.3E1,1.5E1,7.6E1,1.7E1,8E0,7E0],"tree_param":{"num_deleted":"0","num_feature":"20","num_nodes":"9","size_leaf_vector":"1"}},{"base_weights":[-5.097919E-4,-3.0579858E-3,1.034116E-3,-1.0282993E-2,6.637318E-4,1.715056E-3,2.8588195E-4,-3.179312E-5,-1.2971835E-3,2.0946961E-4,-6.3376426E-4,1.4582754E-3,-1.5841999E-5],"categories":[],"categories_nodes":[],"categories_segments":[],"categories_sizes":[],"default_left":[0,0,0,0,0,0,0,0,0,0,0,0,0],"id":68,"left_children":[1,3,5,7,9,-1,11,-1,-1,-1,-1,-1,-1],"loss_changes":[4.2805338E-4,1.1092921E-3,8.1510044E-4,3.709984E-4,2.937995E-4,0E0,4.215506E-4,0E0,0E0,0E0,0E0,0E0,0E0],"parents":[2147483647,0,0,1,1,2,2,3,3,4,4,6,6],"right_children":[2,4,6,8,10,-1,12,-1,-1,-1,-1,-1,-1],"split_conditions":[-4.2155352E-1,2.1763759E-2,-3.790579E-1,-9.315584E-1,9.0729064E-1,1.715056E-3,-8.6164916E-1,-3.179312E-5,-1.2971835E-3,2.0946961E-4,-6.3376426E-4,1.4582754E-3,-1.5841999E-5],"split_indices":[2,9,2,9,7,0,18,0,0,0,0,0,0],"split_type":[0,0,0,0,0,0,0,0,0,0,0,0,0],"sum_hessian":[1.07E2,4E1,6.7E1,1.3E1,2.7E1,2E0,6.5E1,3E0,1E1,2.3E1,4E0,1E0,6.4E1],"tree_param":{"num_deleted":"0","num_feature":"20","num_nodes":"13","size_leaf_vector":"1"}},{"base_weights":[2.4651387E-4,-1.2637298E-3,6.0543837E-4,1.1872466E-3,-5.156827E-3,-2.664891E-4,2.2724387E-4,1.9539426E-4,-1.6311466E-3],"categories":[],"categories_nodes":[],"categories_segments":[],"categories_sizes":[],"default_left":[0,0,0,0,0,0,0,0,0],"id":69,"left_children":[1,-1,3,5,7,-1,-1,-1,-1],"loss_changes":[5.1170145E-4,0E0,3.6484352E-4,4.1572613E-4,8.2505244E-4,0E0,0E0,0E0,0E0],"parents":[2147483647,0,0,2,2,3,3,4,4],"right_children":[2,-1,4,6,8,-1,-1,-1,-1],"split_conditions":[-1.5192243E0,-1.2637298E-3,1.5757749E0,-1.0237201E0,-5.685025E-1,-2.664891E-4,2.2724387E-4,1.9539426E-4,-1.6311466E-3],"split_indices":[1,0,1,8,9,0,0,0,0],"split_type":[0,0,0,0,0,0,0,0,0],"sum_hessian":[1.08E2,2E0,1.06E2,9.7E1,9E0,2.1E1,7.6E1,6E0,3E0],"tree_param":{"num_deleted":"0","num_feature":"20","num_nodes":"9","size_leaf_vector":"1"}},{"base_weights":[1.2060007E-4,-1.2001038E-3,3.4604562E-4,9.563287E-3,7.94002E-5,1.5410305E-3,-1.0653734E-4,-2.7927787E-5,7.308817E-4],"categories":[],"categories_nodes":[],"categories_segments":[],"categories_sizes":[],"default_left":[0,0,0,0,0,0,0,0,0],"id":70,"left_children":[1,-1,3,5,7,-1,-1,-1,-1],"loss_changes":[2.99292E-4,0E0,2.6221835E-4,2.0285562E-4,2.7430968E-4,0E0,0E0,0E0,0E0],"parents":[2147483647,0,0,2,2,3,3,4,4],"right_children":[2,-1,4,6,8,-1,-1,-1,-1],"split_conditions":[-2.1849136E0,-1.2001038E-3,-1.7742807E0,-4.094119E-1,1.6380668E0,1.5410305E-3,-1.0653734E-4,-2.7927787E-5,7.308817E-4],"split_indices":[6,0,9,2,19,0,0,0,0],"split_type":[0,0,0,0,0,0,0,0,0],"sum_hessian":[1.07E2,1E0,1.06E2,2E0,1.04E2,1E0,1E0,1E2,4E0],"tree_param":{"num_deleted":"0","num_feature":"20","num_nodes":"9","size_leaf_vector":"1"}},{"base_weights":[3.972609E-4,-8.6301053E-4,2.9802532E-3,-9.827754E-5,-1.7909289E-3,1.2049484E-2,1.369373E-3,-3.208202E-4,1.4588212E-4,-1.9706487E-4,1.604718E-3,1.4639735E-3,4.0695588E-5],"categories":[],"categories_nodes":[],"categories_segments":[],"categories_sizes":[],"default_left":[0,0,0,0,0,0,0,0,0,0,0,0,0],"id":71,"left_children":[1,3,5,7,-1,9,11,-1,-1,-1,-1,-1,-1],"loss_changes":[3.3786497E-4,9.107495E-4,4.8022092E-4,3.339674E-4,0E0,3.1186442E-4,3.77191E-4,0E0,0E0,0E0,0E0,0E0,0E0],"parents":[2147483647,0,0,1,1,2,2,3,3,5,5,6,6],"right_children":[2,4,6,8,-1,10,12,-1,-1,-1,-1,-1,-1],"split_conditions":[3.5357252E-1,2.8237987E-1,-6.714053E-1,-5.7273966E-1,-1.7909289E-3,-1.8302352E0,-1.5192243E0,-3.208202E-4,1.4588212E-4,-1.9706487E-4,1.604718E-3,1.4639735E-3,4.0695588E-5],"split_indices":[5,5,15,6,0,6,1,0,0,0,0,0,0],"split_type":[0,0,0,0,0,0,0,0,0,0,0,0,0],"sum_hessian":[1.02E2,6.9E1,3.3E1,6.7E1,2E0,4E0,2.9E1,2.2E1,4.5E1,1E0,3E0,1E0,2.8E1],"tree_param":{"num_deleted":"0","num_feature":"20","num_nodes":"13","size_leaf_vector":"1"}},{"base_weights":[-4.0189573E-4,9.6967694E-4,-8.882203E-4,7.7918597E-4,-3.4286685E-3,1.7206103E-4,-1.0485458E-3,-6.626227E-4,2.5555133E-4],"categories":[],"categories_nodes":[],"categories_segments":[],"categories_sizes":[],"default_left":[0,0,0,0,0,0,0,0,0],"id":72,"left_children":[1,-1,3,5,7,-1,-1,-1,-1],"loss_changes":[5.3411437E-4,0E0,4.3897534E-4,6.8614446E-4,8.0145895E-4,0E0,0E0,0E0,0E0],"parents":[2147483647,0,0,2,2,3,3,4,4],"right_children":[2,-1,4,6,8,-1,-1,-1,-1],"split_conditions":[-1.7537295E0,9.6967694E-4,1.7975767E-1,1.5321386E0,-1.5443821E-1,1.7206103E-4,-1.0485458E-3,-6.626227E-4,2.5555133E-4],"split_indices":[5,0,17,4,2,0,0,0,0],"split_type":[0,0,0,0,0,0,0,0,0],"sum_hessian":[1.06E2,4E0,1.02E2,6.2E1,4E1,5.8E1,4E0,2.6E1,1.4E1],"tree_param":{"num_deleted":"0","num_feature":"20","num_nodes":"9","size_leaf_vector":"1"}},{"base_weights":[3.8676793E-5,1.3821721E-3,-2.1931167E-4,-3.221817E-3,6.876997E-4,6.3000916E-4,-3.881067E-4,8.516974E-4,-2.6098252E-5],"categories":[],"categories_nodes":[],"categories_segments":[],"categories_sizes":[],"default_left":[0,0,0,0,0,0,0,0,0],"id":73,"left_children":[1,-1,3,5,7,-1,-1,-1,-1],"loss_changes":[3.8706482E-4,0E0,2.9360945E-4,1.8138404E-4,6.187047E-4,0E0,0E0,0E0,0E0],"parents":[2147483647,0,0,2,2,3,3,4,4],"right_children":[2,-1,4,6,8,-1,-1,-1,-1],"split_conditions":[-1.7742807E0,1.3821721E-3,-8.71047E-1,-1.9082639E0,-6.714053E-1,6.3000916E-4,-3.881067E-4,8.516974E-4,-2.6098252E-5],"split_indices":[9,0,10,7,15,0,0,0,0],"split_type":[0,0,0,0,0,0,0,0,0],"sum_hessian":[1.07E2,1E0,1.06E2,2.4E1,8.2E1,1E0,2.3E1,8E0,7.4E1],"tree_param":{"num_deleted":"0","num_feature":"20","num_nodes":"9","size_leaf_vector":"1"}},{"base_weights":[9.48127E-5,-6.151708E-4,4.948176E-3,-1.9717494E-3,2.118492E-3,8.079791E-3,-4.1179062E-4,-8.9580816E-4,-2.2057126E-5,1.3130665E-3,1.2859805E-4,1.030227E-3,2.1705031E-4],"categories":[],"categories_nodes":[],"categories_segments":[],"categories_sizes":[],"default_left":[0,0,0,0,0,0,0,0,0,0,0,0,0],"id":74,"left_children":[1,3,5,7,9,11,-1,-1,-1,-1,-1,-1,-1],"loss_changes":[3.510706E-4,3.342273E-4,4.02361E-4,7.320829E-4,2.5814708E-4,1.0897161E-4,0E0,0E0,0E0,0E0,0E0,0E0,0E0],"parents":[2147483647,0,0,1,1,2,2,3,3,4,4,5,5],"right_children":[2,4,6,8,10,12,-1,-1,-1,-1,-1,-1,-1],"split_conditions":[1.1830616E0,9.938954E-1,1.2836301E0,-1.111032E0,-1.5192243E0,-4.087134E-1,-4.1179062E-4,-8.9580816E-4,-2.2057126E-5,1.3130665E-3,1.2859805E-4,1.030227E-3,2.1705031E-4],"split_indices":[9,16,17,8,1,16,0,0,0,0,0,0,0],"split_type":[0,0,0,0,0,0,0,0,0,0,0,0,0],"sum_hessian":[1E2,8.8E1,1.2E1,5.9E1,2.9E1,9E0,3E0,1.1E1,4.8E1,1E0,2.8E1,6E0,3E0],"tree_param":{"num_deleted":"0","num_feature":"20","num_nodes":"13","size_leaf_vector":"1"}},{"base_weights":[-3.3610238E-4,2.4441126E-5,-6.95014E-3,-1.7905318E-3,1.9734039E-3,-1.1466622E-2,1.3885498E-3,-7.005828E-4,-1.2820562E-5,2.6613014E-5,6.011546E-4,-1.3157845E-3,-3.196478E-4,-6.8795685E-5,2.7707816E-4],"categories":[],"categories_nodes":[],"categories_segments":[],"categories_sizes":[],"default_left":[0,0,0,0,0,0,0,0,0,0,0,0,0,0,0],"id":75,"left_children":[1,3,5,7,9,11,13,-1,-1,-1,-1,-1,-1,-1,-1],"loss_changes":[2.7678907E-4,3.9617537E-4,2.4189122E-4,5.0193415E-4,3.7068763E-4,1.3887882E-5,1.0516818E-5,0E0,0E0,0E0,0E0,0E0,0E0,0E0,0E0],"parents":[2147483647,0,0,1,1,2,2,3,3,4,4,5,5,6,6],"right_children":[2,4,6,8,10,12,14,-1,-1,-1,-1,-1,-1,-1,-1],"split_conditions":[1.7133377E0,6.871927E-2,2.3312728E0,-2.8203118E-1,7.724098E-1,8.459733E-1,-6.251134E-1,-7.005828E-4,-1.2820562E-5,2.6613014E-5,6.011546E-4,-1.3157845E-3,-3.196478E-4,-6.8795685E-5,2.7707816E-4],"split_indices":[4,3,4,19,8,6,1,0,0,0,0,0,0,0,0],"split_type":[0,0,0,0,0,0,0,0,0,0,0,0,0,0,0],"sum_hessian":[1.15E2,1.1E2,5E0,5.7E1,5.3E1,3E0,2E0,1.3E1,4.4E1,3.8E1,1.5E1,2E0,1E0,1E0,1E0],"tree_param":{"num_deleted":"0","num_feature":"20","num_nodes":"15","size_leaf_vector":"1"}},{"base_weights":[6.1156636E-4,-3.770675E-3,1.2717817E-3,-5.6905965E-3,2.4517775E-3,9.812117E-3,8.7365677E-4,-3.158182E-4,-9.332776E-4,4.5322577E-4,-1.8948317E-4,1.3015748E-3,4.4056572E-4,-5.2964006E-4,1.383497E-4],"categories":[],"categories_nodes":[],"categories_segments":[],"categories_sizes":[],"default_left":[0,0,0,0,0,0,0,0,0,0,0,0,0,0,0],"id":76,"left_children":[1,3,5,7,9,11,13,-1,-1,-1,-1,-1,-1,-1,-1],"loss_changes":[3.085839E-4,1.8120477E-4,3.0423864E-4,7.198396E-5,4.4760003E-5,1.1938275E-5,2.8729875E-4,0E0,0E0,0E0,0E0,0E0,0E0,0E0,0E0],"parents":[2147483647,0,0,1,1,2,2,3,3,4,4,5,5,6,6],"right_children":[2,4,6,8,10,12,14,-1,-1,-1,-1,-1,-1,-1,-1],"split_conditions":[-9.420693E-1,3.333483E-1,-7.666814E-1,-6.755076E-1,-7.626689E-1,-1.5466756E0,-1.1480435E0,-3.158182E-4,-9.332776E-4,4.5322577E-4,-1.8948317E-4,1.3015748E-3,4.4056572E-4,-5.2964006E-4,1.383497E-4],"split_indices":[3,19,3,7,1,2,13,0,0,0,0,0,0,0,0],"split_type":[0,0,0,0,0,0,0,0,0,0,0,0,0,0,0],"sum_hessian":[1.04E2,1.3E1,9.1E1,1E1,3E0,3E0,8.8E1,7E0,3E0,2E0,1E0,1E0,2E0,6E0,8.2E1],"tree_param":{"num_deleted":"0","num_feature":"20","num_nodes":"15","size_leaf_vector":"1"}},{"base_weights":[4.673419E-5,-2.561594E-3,9.156397E-4,-5.203119E-4,-1.5189529E-3,1.1056602E-2,4.2183627E-4,-2.1796553E-4,6.884861E-4,8.461475E-5,1.4178038E-3,-1.3289819E-4,1.8970552E-4],"categories":[],"categories_nodes":[],"categories_segments":[],"categories_sizes":[],"default_left":[0,0,0,0,0,0,0,0,0,0,0,0,0],"id":77,"left_children":[1,3,5,7,-1,9,11,-1,-1,-1,-1,-1,-1],"loss_changes":[2.629804E-4,7.396348E-4,4.3100075E-4,3.3448744E-4,0E0,1.1548842E-4,2.1947971E-4,0E0,0E0,0E0,0E0,0E0,0E0],"parents":[2147483647,0,0,1,1,2,2,3,3,5,5,6,6],"right_children":[2,4,6,8,-1,10,12,-1,-1,-1,-1,-1,-1],"split_conditions":[-5.6118196E-1,-4.0287632E-1,-1.013326E0,4.48496E-1,-1.5189529E-3,-1.3816687E0,-3.364834E-1,-2.1796553E-4,6.884861E-4,8.461475E-5,1.4178038E-3,-1.3289819E-4,1.8970552E-4],"split_indices":[2,14,5,5,0,1,9,0,0,0,0,0,0],"split_type":[0,0,0,0,0,0,0,0,0,0,0,0,0],"sum_hessian":[1.14E2,2.8E1,8.6E1,2.5E1,3E0,3E0,8.3E1,2.1E1,4E0,1E0,2E0,3.8E1,4.5E1],"tree_param":{"num_deleted":"0","num_feature":"20","num_nodes":"13","size_leaf_vector":"1"}},{"base_weights":[2.4248294E-4,-1.3733974E-3,2.0120284E-3,6.059635E-4,-6.8240482E-3,4.398938E-3,-6.4631464E-4,-9.685278E-4,1.09319575E-4,-1.0171917E-3,-1.5447821E-4,7.805173E-4,1.3028659E-5,-2.2746444E-4,4.8891705E-4],"categories":[],"categories_nodes":[],"categories_segments":[],"categories_sizes":[],"default_left":[0,0,0,0,0,0,0,0,0,0,0,0,0,0,0],"id":78,"left_children":[1,3,5,7,9,11,13,-1,-1,-1,-1,-1,-1,-1,-1],"loss_changes":[3.0585693E-4,6.0830824E-4,3.2644946E-4,2.211853E-4,2.4940097E-4,3.9156387E-4,2.36461E-4,0E0,0E0,0E0,0E0,0E0,0E0,0E0,0E0],"parents":[2147483647,0,0,1,1,2,2,3,3,4,4,5,5,6,6],"right_children":[2,4,6,8,10,12,14,-1,-1,-1,-1,-1,-1,-1,-1],"split_conditions":[-3.1227572E-2,9.0961415E-1,6.942216E-1,-2.1849136E0,1.7189628E-2,4.5905158E-1,1.5825944E0,-9.685278E-4,1.09319575E-4,-1.0171917E-3,-1.5447821E-4,7.805173E-4,1.3028659E-5,-2.2746444E-4,4.8891705E-4],"split_indices":[7,8,7,6,19,6,3,0,0,0,0,0,0,0,0],"split_type":[0,0,0,0,0,0,0,0,0,0,0,0,0,0,0],"sum_hessian":[1.05E2,5.5E1,5E1,4.1E1,1.4E1,2.6E1,2.4E1,1E0,4E1,8E0,6E0,1.4E1,1.2E1,1.9E1,5E0],"tree_param":{"num_deleted":"0","num_feature":"20","num_nodes":"15","size_leaf_vector":"1"}},{"base_weights":[-5.879853E-4,3.0005574E-3,-1.5599971E-3,2.964586E-4,7.474449E-3,-3.455256E-4,-6.263746E-3,6.9393317E-4,-1.1481898E-4,9.1736665E-4,1.01812686E-4,-1.8881667E-4,2.090965E-4,5.7997706E-4,-8.1341714E-4],"categories":[],"categories_nodes":[],"categories_segments":[],"categories_sizes":[],"default_left":[0,0,0,0,0,0,0,0,0,0,0,0,0,0,0],"id":79,"left_children":[1,3,5,7,9,11,13,-1,-1,-1,-1,-1,-1,-1,-1],"loss_changes":[3.918606E-4,2.8813235E-4,5.005418E-4,1.6151353E-4,8.9396315E-5,2.7081085E-4,4.5332668E-4,0E0,0E0,0E0,0E0,0E0,0E0,0E0,0E0],"parents":[2147483647,0,0,1,1,2,2,3,3,4,4,5,5,6,6],"right_children":[2,4,6,8,10,12,14,-1,-1,-1,-1,-1,-1,-1,-1],"split_conditions":[-7.5228643E-1,7.8252333E-1,6.0142374E-1,-1.7537295E0,-6.789874E-1,2.021337E-1,-1.3045684E0,6.9393317E-4,-1.1481898E-4,9.1736665E-4,1.01812686E-4,-1.8881667E-4,2.090965E-4,5.7997706E-4,-8.1341714E-4],"split_indices":[5,17,17,5,3,7,7,0,0,0,0,0,0,0,0],"split_type":[0,0,0,0,0,0,0,0,0,0,0,0,0,0,0],"sum_hessian":[1.1E2,2.3E1,8.7E1,1.5E1,8E0,7E1,1.7E1,2E0,1.3E1,6E0,2E0,4.3E1,2.7E1,2E0,1.5E1],"tree_param":{"num_deleted":"0","num_feature":"20","num_nodes":"15","size_leaf_vector":"1"}},{"base_weights":[-3.9854093E-4,3.9254823E-3,-1.0843049E-3,1.1103988E-3,1.2055238E-3,-6.9822697E-4,-1.2562593E-3,2.7888615E-4,-2.6583672E-4,-4.1137668E-4,1.3081233E-5],"categories":[],"categories_nodes":[],"categories_segments":[],"categories_sizes":[],"default_left":[0,0,0,0,0,0,0,0,0,0,0],"id":80,"left_children":[1,3,5,-1,7,9,-1,-1,-1,-1,-1],"loss_changes":[3.2450442E-4,2.794924E-4,4.0779074E-4,0E0,8.082796E-5,2.610469E-4,0E0,0E0,0E0,0E0,0E0],"parents":[2147483647,0,0,1,1,2,2,4,4,5,5],"right_children":[2,4,6,-1,8,10,-1,-1,-1,-1,-1],"split_conditions":[-1.2232902E0,1.8011495E-1,1.5948614E0,1.1103988E-3,7.44942E-1,-1.1065577E0,-1.2562593E-3,2.7888615E-4,-2.6583672E-4,-4.1137668E-4,1.3081233E-5],"split_indices":[8,4,4,0,19,1,0,0,0,0,0],"split_type":[0,0,0,0,0,0,0,0,0,0,0],"sum_hessian":[1.07E2,1.4E1,9.3E1,3E0,1.1E1,9.1E1,2E0,8E0,3E0,1.7E1,7.4E1],"tree_param":{"num_deleted":"0","num_feature":"20","num_nodes":"11","size_leaf_vector":"1"}},{"base_weights":[-1.0310029E-4,2.3882082E-3,-1.1179353E-3,-1.8795729E-3,4.8294663E-3,-1.7241755E-3,3.055668E-3,-8.588672E-4,-4.8886646E-5,7.8654074E-4,1.00698475E-4,-4.2010208E-5,-7.666171E-4,3.9816584E-4,6.7126755E-5],"categories":[],"categories_nodes":[],"categories_segments":[],"categories_sizes":[],"default_left":[0,0,0,0,0,0,0,0,0,0,0,0,0,0,0],"id":81,"left_children":[1,3,5,7,9,11,13,-1,-1,-1,-1,-1,-1,-1,-1],"loss_changes":[2.7066618E-4,3.3205876E-4,1.9756416E-4,1.07765925E-4,2.2417624E-4,5.15949E-4,1.9406565E-5,0E0,0E0,0E0,0E0,0E0,0E0,0E0,0E0],"parents":[2147483647,0,0,1,1,2,2,3,3,4,4,5,5,6,6],"right_children":[2,4,6,8,10,12,14,-1,-1,-1,-1,-1,-1,-1,-1],"split_conditions":[-7.2588027E-1,-1.1065577E0,1.5825944E0,-1.5192243E0,6.7392933E-1,7.795021E-1,2.0335124E0,-8.588672E-4,-4.8886646E-5,7.8654074E-4,1.00698475E-4,-4.2010208E-5,-7.666171E-4,3.9816584E-4,6.7126755E-5],"split_indices":[4,1,3,1,7,3,7,0,0,0,0,0,0,0,0],"split_type":[0,0,0,0,0,0,0,0,0,0,0,0,0,0,0],"sum_hessian":[1.05E2,3E1,7.5E1,1.1E1,1.9E1,6.6E1,9E0,1E0,1E1,1E1,9E0,5.5E1,1.1E1,6E0,3E0],"tree_param":{"num_deleted":"0","num_feature":"20","num_nodes":"15","size_leaf_vector":"1"}},{"base_weights":[2.8045973E-4,4.5345913E-4,-9.374738E-4,-8.115307E-4,2.0448042E-3,1.5341586E-5,-7.344097E-4,6.92966E-4,7.724703E-5],"categories":[],"categories_nodes":[],"categories_segments":[],"categories_sizes":[],"default_left":[0,0,0,0,0,0,0,0,0],"id":82,"left_children":[1,3,-1,5,7,-1,-1,-1,-1],"loss_changes":[1.8965919E-4,2.2309332E-4,0E0,3.919485E-4,2.9919026E-4,0E0,0E0,0E0,0E0],"parents":[2147483647,0,0,1,1,3,3,4,4],"right_children":[2,4,-1,6,8,-1,-1,-1,-1],"split_conditions":[3.7040422E0,1.0450873E-1,-9.374738E-4,-2.9551454E-2,4.5905158E-1,1.5341586E-5,-7.344097E-4,6.92966E-4,7.724703E-5],"split_indices":[17,18,0,18,6,0,0,0,0],"split_type":[0,0,0,0,0,0,0,0,0],"sum_hessian":[1.1E2,1.09E2,1E0,6.1E1,4.8E1,5.4E1,7E0,9E0,3.9E1],"tree_param":{"num_deleted":"0","num_feature":"20","num_nodes":"9","size_leaf_vector":"1"}},{"base_weights":[-1.4694962E-4,1.3641878E-5,-8.9060067E-4,-1.9009398E-4,1.1110426E-3,-1.3980627E-4,1.2632704E-4],"categories":[],"categories_nodes":[],"categories_segments":[],"categories_sizes":[],"default_left":[0,0,0,0,0,0,0],"id":83,"left_children":[1,3,-1,5,-1,-1,-1],"loss_changes":[1.5625745E-4,2.5080141E-4,0E0,1.9312857E-4,0E0,0E0,0E0],"parents":[2147483647,0,0,1,1,3,3],"right_children":[2,4,-1,6,-1,-1,-1],"split_conditions":[3.446516E0,2.2641768E0,-8.9060067E-4,6.871927E-2,1.1110426E-3,-1.3980627E-4,1.2632704E-4],"split_indices":[17,17,0,3,0,0,0],"split_type":[0,0,0,0,0,0,0],"sum_hessian":[1.1E2,1.09E2,1E0,1.08E2,1E0,5.9E1,4.9E1],"tree_param":{"num_deleted":"0","num_feature":"20","num_nodes":"7","size_leaf_vector":"1"}},{"base_weights":[3.0562817E-4,7.1091246E-4,-3.2998521E-3,3.9489364E-4,7.015514E-3,1.3152957E-3,-4.984379E-3,5.6634326E-5,-8.46076E-4,9.4565155E-4,-1.3742447E-4,-2.8371812E-6,1.7726421E-4,-6.051404E-4,-8.331935E-5],"categories":[],"categories_nodes":[],"categories_segments":[],"categories_sizes":[],"default_left":[0,0,0,0,0,0,0,0,0,0,0,0,0,0,0],"id":84,"left_children":[1,3,5,7,9,11,13,-1,-1,-1,-1,-1,-1,-1,-1],"loss_changes":[1.7331152E-4,2.0842114E-4,9.984801E-5,1.5965816E-4,1.1539261E-4,2.5083796E-6,3.482279E-5,0E0,0E0,0E0,0E0,0E0,0E0,0E0,0E0],"parents":[2147483647,0,0,1,1,2,2,3,3,4,4,5,5,6,6],"right_children":[2,4,6,8,10,12,14,-1,-1,-1,-1,-1,-1,-1,-1],"split_conditions":[1.1091841E0,1.096711E0,-7.5228643E-1,3.7040422E0,-1.9698387E-1,-1.0836322E0,4.0578043E-1,5.6634326E-5,-8.46076E-4,9.4565155E-4,-1.3742447E-4,-2.8371812E-6,1.7726421E-4,-6.051404E-4,-8.331935E-5],"split_indices":[8,8,5,17,5,4,5,0,0,0,0,0,0,0,0],"split_type":[0,0,0,0,0,0,0,0,0,0,0,0,0,0,0],"sum_hessian":[1.16E2,1.05E2,1.1E1,1.01E2,4E0,3E0,8E0,1E2,1E0,3E0,1E0,1E0,2E0,6E0,2E0],"tree_param":{"num_deleted":"0","num_feature":"20","num_nodes":"15","size_leaf_vector":"1"}},{"base_weights":[4.8009708E-4,1.7200757E-3,-2.3636073E-3,2.4545307E-3,-2.6427181E-3,-1.1242788E-3,-1.3969024E-3,1.1810922E-4,6.8272016E-4,3.5589933E-4,-5.4132345E-4,-1.7444407E-4,5.038659E-4],"categories":[],"categories_nodes":[],"categories_segments":[],"categories_sizes":[],"default_left":[0,0,0,0,0,0,0,0,0,0,0,0,0],"id":85,"left_children":[1,3,5,7,9,11,-1,-1,-1,-1,-1,-1,-1],"loss_changes":[3.707834E-4,2.4039872E-4,4.4454852E-4,3.42741E-4,2.0826701E-4,1.2345021E-4,0E0,0E0,0E0,0E0,0E0,0E0,0E0],"parents":[2147483647,0,0,1,1,2,2,3,3,4,4,5,5],"right_children":[2,4,6,8,10,12,-1,-1,-1,-1,-1,-1,-1],"split_conditions":[5.441085E-1,1.1091841E0,3.0439895E-1,7.599367E-1,-6.193935E-1,9.9692607E-1,-1.3969024E-3,1.1810922E-4,6.8272016E-4,3.5589933E-4,-5.4132345E-4,-1.7444407E-4,5.038659E-4],"split_indices":[1,8,17,8,5,8,0,0,0,0,0,0,0],"split_type":[0,0,0,0,0,0,0,0,0,0,0,0,0],"sum_hessian":[1.03E2,7.2E1,3.1E1,6.2E1,1E1,2.9E1,2E0,4.9E1,1.3E1,3E0,7E0,2.7E1,2E0],"tree_param":{"num_deleted":"0","num_feature":"20","num_nodes":"13","size_leaf_vector":"1"}},{"base_weights":[-1.6872225E-5,3.6565543E-3,-3.600254E-4,1.0264397E-3,7.21544E-4,2.1758589E-7,-7.7090263E-3,2.3648262E-4,-1.5129447E-4,-8.5899833E-4,2.553699E-5,8.9542074E-5,-1.3743798E-3],"categories":[],"categories_nodes":[],"categories_segments":[],"categories_sizes":[],"default_left":[0,0,0,0,0,0,0,0,0,0,0,0,0],"id":86,"left_children":[1,3,5,-1,7,9,11,-1,-1,-1,-1,-1,-1],"loss_changes":[1.4754003E-4,1.8653463E-4,2.8327625E-4,0E0,3.2953016E-5,2.2795002E-4,2.7193586E-4,0E0,0E0,0E0,0E0,0E0,0E0],"parents":[2147483647,0,0,1,1,2,2,4,4,5,5,6,6],"right_children":[2,4,6,-1,8,10,12,-1,-1,-1,-1,-1,-1],"split_conditions":[-1.3355483E0,-3.5000238E-1,1.5615753E0,1.0264397E-3,1.0148913E0,-1.5192243E0,5.394975E-1,2.3648262E-4,-1.5129447E-4,-8.5899833E-4,2.553699E-5,8.9542074E-5,-1.3743798E-3],"split_indices":[8,1,2,0,3,1,3,0,0,0,0,0,0],"split_type":[0,0,0,0,0,0,0,0,0,0,0,0,0],"sum_hessian":[1.15E2,9E0,1.06E2,2E0,7E0,1.02E2,4E0,4E0,3E0,2E0,1E2,2E0,2E0],"tree_param":{"num_deleted":"0","num_feature":"20","num_nodes":"13","size_leaf_vector":"1"}},{"base_weights":[-1.3945377E-4,1.1285067E-3,-3.4221794E-4,-5.8572076E-4,8.7002915E-4,-7.85874E-5,6.815036E-4],"categories":[],"categories_nodes":[],"categories_segments":[],"categories_sizes":[],"default_left":[0,0,0,0,0,0,0],"id":87,"left_children":[1,-1,3,5,-1,-1,-1],"loss_changes":[2.6562458E-4,0E0,2.517061E-4,1.6829715E-4,0E0,0E0,0E0],"parents":[2147483647,0,0,2,2,3,3],"right_children":[2,-1,4,6,-1,-1,-1],"split_conditions":[-1.7742807E0,1.1285067E-3,1.5904095E0,2.4414368E0,8.7002915E-4,-7.85874E-5,6.815036E-4],"split_indices":[9,0,19,17,0,0,0],"split_type":[0,0,0,0,0,0,0],"sum_hessian":[1.12E2,1E0,1.11E2,1.09E2,2E0,1.07E2,2E0],"tree_param":{"num_deleted":"0","num_feature":"20","num_nodes":"7","size_leaf_vector":"1"}},{"base_weights":[-4.448936E-4,3.9594E-3,-1.1102764E-3,9.064138E-4,1.7431866E-3,-8.352109E-3,-5.0791475E-4,3.7363595E-6,3.7827014E-4,-1.4268995E-3,-3.4719706E-5,-7.347668E-5,9.387255E-4],"categories":[],"categories_nodes":[],"categories_segments":[],"categories_sizes":[],"default_left":[0,0,0,0,0,0,0,0,0,0,0,0,0],"id":88,"left_children":[1,3,5,-1,7,9,11,-1,-1,-1,-1,-1,-1],"loss_changes":[3.121029E-4,1.4258418E-4,3.9708056E-4,0E0,3.8128233E-5,3.2659486E-4,1.9994503E-4,0E0,0E0,0E0,0E0,0E0,0E0],"parents":[2147483647,0,0,1,1,2,2,4,4,5,5,6,6],"right_children":[2,4,6,-1,8,10,12,-1,-1,-1,-1,-1,-1],"split_conditions":[-1.2232902E0,-3.5000238E-1,-1.111032E0,9.064138E-4,1.8914222E0,7.6428982E-3,2.4414368E0,3.7363595E-6,3.7827014E-4,-1.4268995E-3,-3.4719706E-5,-7.347668E-5,9.387255E-4],"split_indices":[8,1,8,0,2,6,17,0,0,0,0,0,0],"split_type":[0,0,0,0,0,0,0,0,0,0,0,0,0],"sum_hessian":[1.04E2,1.3E1,9.1E1,3E0,1E1,6E0,8.5E1,6E0,4E0,3E0,3E0,8.4E1,1E0],"tree_param":{"num_deleted":"0","num_feature":"20","num_nodes":"13","size_leaf_vector":"1"}},{"base_weights":[2.2761388E-4,6.410658E-4,-5.6551994E-6,-3.1611703E-3,8.016353E-4,1.0646473E-5,-5.8930716E-4,6.1745645E-4,2.47394E-5],"categories":[],"categories_nodes":[],"categories_segments":[],"categories_sizes":[],"default_left":[0,0,0,0,0,0,0,0,0],"id":89,"left_children":[1,-1,3,5,7,-1,-1,-1,-1],"loss_changes":[1.5869069E-4,0E0,2.7510777E-4,1.9701822E-4,2.5457182E-4,0E0,0E0,0E0,0E0],"parents":[2147483647,0,0,2,2,3,3,4,4],"right_children":[2,-1,4,6,8,-1,-1,-1,-1],"split_conditions":[-1.7537295E0,6.410658E-4,-8.7360096E-1,-1.2299854E0,-4.0539464E-1,1.0646473E-5,-5.8930716E-4,6.1745645E-4,2.47394E-5],"split_indices":[5,0,10,4,10,0,0,0,0],"split_type":[0,0,0,0,0,0,0,0,0],"sum_hessian":[1.09E2,3E0,1.06E2,2.1E1,8.5E1,1E1,1.1E1,7E0,7.8E1],"tree_param":{"num_deleted":"0","num_feature":"20","num_nodes":"9","size_leaf_vector":"1"}},{"base_weights":[1.655465E-4,5.7847815E-4,-5.698136E-3,-9.372601E-5,2.9354529E-3,1.2814999E-3,-1.1253238E-2,6.055692E-5,-4.4081212E-4,5.581031E-4,-7.973433E-5,2.739191E-4,-1.1746089E-5,-1.2969892E-3,-3.0516388E-4],"categories":[],"categories_nodes":[],"categories_segments":[],"categories_sizes":[],"default_left":[0,0,0,0,0,0,0,0,0,0,0,0,0,0,0],"id":90,"left_children":[1,3,5,7,9,11,13,-1,-1,-1,-1,-1,-1,-1,-1],"loss_changes":[2.5753275E-4,1.571276E-4,2.8582916E-4,2.3799822E-4,2.2170883E-4,8.478759E-6,1.6737788E-5,0E0,0E0,0E0,0E0,0E0,0E0,0E0,0E0],"parents":[2147483647,0,0,1,1,2,2,3,3,4,4,5,5,6,6],"right_children":[2,4,6,8,10,12,14,-1,-1,-1,-1,-1,-1,-1,-1],"split_conditions":[1.5757749E0,9.9692607E-1,-5.685025E-1,1.2836301E0,1.1091841E0,1.8508859E0,1.7133304E0,6.055692E-5,-4.4081212E-4,5.581031E-4,-7.973433E-5,2.739191E-4,-1.1746089E-5,-1.2969892E-3,-3.0516388E-4],"split_indices":[1,8,9,17,8,1,1,0,0,0,0,0,0,0,0],"split_type":[0,0,0,0,0,0,0,0,0,0,0,0,0,0,0],"sum_hessian":[1.04E2,9.8E1,6E0,7.7E1,2.1E1,3E0,3E0,6.7E1,1E1,1.2E1,9E0,1E0,2E0,2E0,1E0],"tree_param":{"num_deleted":"0","num_feature":"20","num_nodes":"15","size_leaf_vector":"1"}},{"base_weights":[-1.00171994E-4,4.4760704E-3,-4.0143167E-4,6.1516366E-3,-2.788663E-4,-1.9047552E-3,8.755388E-4,-3.7515165E-5,7.532024E-4,-2.3954858E-4,1.0825157E-3,1.0224938E-3,5.3212938E-5],"categories":[],"categories_nodes":[],"categories_segments":[],"categories_sizes":[],"default_left":[0,0,0,0,0,0,0,0,0,0,0,0,0],"id":91,"left_children":[1,3,5,7,-1,9,11,-1,-1,-1,-1,-1,-1],"loss_changes":[1.562042E-4,1.02362625E-4,2.0515587E-4,5.6882636E-5,0E0,3.3203245E-4,1.8077798E-4,0E0,0E0,0E0,0E0,0E0,0E0],"parents":[2147483647,0,0,1,1,2,2,3,3,5,5,6,6],"right_children":[2,4,6,8,-1,10,12,-1,-1,-1,-1,-1,-1],"split_conditions":[-1.3600769E0,-2.1244685E-1,3.6410954E-2,-1.1065577E0,-2.788663E-4,4.48496E-1,-1.5192243E0,-3.7515165E-5,7.532024E-4,-2.3954858E-4,1.0825157E-3,1.0224938E-3,5.3212938E-5],"split_indices":[4,1,3,1,0,5,1,0,0,0,0,0,0],"split_type":[0,0,0,0,0,0,0,0,0,0,0,0,0],"sum_hessian":[1.11E2,6E0,1.05E2,5E0,1E0,4.8E1,5.7E1,1E0,4E0,4.7E1,1E0,1E0,5.6E1],"tree_param":{"num_deleted":"0","num_feature":"20","num_nodes":"13","size_leaf_vector":"1"}},{"base_weights":[-5.3818803E-4,-2.824863E-4,-7.307589E-3,6.272955E-7,-5.0955215E-3,-9.978613E-4,3.5274028E-5,-3.841218E-5,5.332061E-4,2.3141701E-4,-9.37891E-4],"categories":[],"categories_nodes":[],"categories_segments":[],"categories_sizes":[],"default_left":[0,0,0,0,0,0,0,0,0,0,0],"id":92,"left_children":[1,3,5,7,9,-1,-1,-1,-1,-1,-1],"loss_changes":[1.9007092E-4,1.4716784E-4,8.5363514E-5,2.133284E-4,2.1213594E-4,0E0,0E0,0E0,0E0,0E0,0E0],"parents":[2147483647,0,0,1,1,2,2,3,3,4,4],"right_children":[2,4,6,8,10,-1,-1,-1,-1,-1,-1],"split_conditions":[2.092803E0,1.7133377E0,-2.0705184E-1,1.3486165E0,7.5180924E-1,-9.978613E-4,3.5274028E-5,-3.841218E-5,5.332061E-4,2.3141701E-4,-9.37891E-4],"split_indices":[17,4,2,4,3,0,0,0,0,0,0],"split_type":[0,0,0,0,0,0,0,0,0,0,0],"sum_hessian":[1.1E2,1.07E2,3E0,1.02E2,5E0,2E0,1E0,9.6E1,6E0,2E0,3E0],"tree_param":{"num_deleted":"0","num_feature":"20","num_nodes":"11","size_leaf_vector":"1"}},{"base_weights":[1.4208331E-4,4.8253612E-4,-3.3917162E-3,1.2599094E-3,-1.8049082E-3,-6.6604614E-3,2.3593307E-4,3.7423768E-5,8.0770854E-4,-6.9897826E-5,-9.313424E-4,-2.4166108E-4,-1.0098775E-3],"categories":[],"categories_nodes":[],"categories_segments":[],"categories_sizes":[],"default_left":[0,0,0,0,0,0,0,0,0,0,0,0,0],"id":93,"left_children":[1,3,5,7,9,11,-1,-1,-1,-1,-1,-1,-1],"loss_changes":[1.2314892E-4,1.6764643E-4,1.849026E-4,4.196218E-4,1.9278351E-4,6.314536E-5,0E0,0E0,0E0,0E0,0E0,0E0,0E0],"parents":[2147483647,0,0,1,1,2,2,3,3,4,4,5,5],"right_children":[2,4,6,8,10,12,-1,-1,-1,-1,-1,-1,-1],"split_conditions":[1.6227381E0,7.500254E-1,2.3312728E0,5.6739485E-1,2.092803E0,-1.3854408E0,2.3593307E-4,3.7423768E-5,8.0770854E-4,-6.9897826E-5,-9.313424E-4,-2.4166108E-4,-1.0098775E-3],"split_indices":[4,7,4,7,17,8,0,0,0,0,0,0,0],"split_type":[0,0,0,0,0,0,0,0,0,0,0,0,0],"sum_hessian":[1E2,9.2E1,8E0,6.9E1,2.3E1,5E0,3E0,6.2E1,